{"learner":{"attributes":{"best_iteration":"99","best_ntree_limit":"100","scikit_learn":"{\"use_label_encoder\": true, \"n_estimators\": 100, \"objective\": \"binary:logistic\", \"max_depth\": null, \"learning_rate\": null, \"verbosity\": null, \"booster\": null, \"tree_method\": null, \"gamma\": null, \"min_child_weight\": null, \"max_delta_step\": null, \"subsample\": null, \"colsample_bytree\": null, \"colsample_bylevel\": null, \"colsample_bynode\": null, \"reg_alpha\": null, \"reg_lambda\": null, \"scale_pos_weight\": null, \"base_score\": null, \"missing\": NaN, \"num_parallel_tree\": null, \"random_state\": null, \"n_jobs\": null, \"monotone_constraints\": null, \"interaction_constraints\": null, \"importance_type\": null, \"gpu_id\": null, \"validate_parameters\": null, \"predictor\": null, \"enable_categorical\": false, \"classes_\": [0, 1], \"n_classes_\": 2, \"_le\": {\"classes_\": [0, 1]}, \"_estimator_type\": \"classifier\"}"},"feature_names":["use_of_ip","abnormal_url","count.","count-www","count@","count_dir","count_embed_domian","short_url","count%","count?","count-","count=","count/","count#","count&","count;","count_","path_length","path_to_urllength_ratio","count_uppercase","count-lowercase","letters_to_urllength_ratio","digit_to_urllength_ratio","specchar_to_urllength_ratio","http_or_https","url_length","hostname_length","sus_url","fd_length","tld_length","count-digits"],"feature_types":["int","int","int","int","int","int","int","int","int","int","int","int","int","int","int","int","int","int","float","int","int","float","float","float","int","int","int","int","int","int","int"],"gradient_booster":{"model":{"gbtree_model_param":{"num_trees":"100","size_leaf_vector":"0"},"tree_info":[0,0,0,0,0,0,0,0,0,0,0,0,0,0,0,0,0,0,0,0,0,0,0,0,0,0,0,0,0,0,0,0,0,0,0,0,0,0,0,0,0,0,0,0,0,0,0,0,0,0,0,0,0,0,0,0,0,0,0,0,0,0,0,0,0,0,0,0,0,0,0,0,0,0,0,0,0,0,0,0,0,0,0,0,0,0,0,0,0,0,0,0,0,0,0,0,0,0,0,0],"trees":[{"base_weights":[-0E0,-9.697471E-1,1.6390073E0,1.959883E0,-1.2234522E0,1.8648437E0,-9.341885E-2,1.9714663E0,-7.9452056E-1,-1.6473093E0,8.1550014E-1,1.9029013E0,1.3096747E-1,1.9970589E0,-5.823873E-1,1.9724171E0,-6.666667E-1,-1.030303E0,9.0909094E-1,-1.8046144E0,-1.3962594E0,1.4083685E0,-1.4392039E0,1.9562031E0,1.1460801E0,1.985663E0,-4.4015443E-1,-1.1449642E0,1.9140188E0,1.974533E0,6.25E-1,-1.1724138E0,-0E0,-1.8480514E0,-1.5429548E0,2.977212E-1,-1.4942994E0,-1.5918367E0,1.470766E0,-8.3710825E-1,-1.9601508E0,1.9722999E0,1.6538763E0,-1.4034034E0,1.5630639E0,-1.1422445E0,1.9138756E0,1.0434783E0,-1.3036602E0,-5.205479E-1,1.9961371E0,1.9988337E0,1.9340038E0,-1.1764706E-1,1.1578947E0,-4.347826E-1,-1.4871795E0,-1E0,1E0,-1.8508663E0,1.4594594E0,-9.9407077E-1,-1.8356464E0,1.4824219E0,-1.5205992E0,-1.5532548E0,-3.6124566E-1,1.2121212E0,-1.966457E0,1.6215372E0,8.892227E-1,-1.7321016E-1,-1.6040133E0,-1.7209302E0,-1.992604E0,1.9805336E0,1.5282052E0,3.4802786E-1,1.9171765E0,-1.8226601E0,4.0837696E-1,-1.6431925E-1,1.8422557E0,-1.5877988E0,1.7263157E0,1.9707317E0,-6.666667E-1,1.8775511E-1,1.5533499E0,1.9691119E0,-1.4016517E0,1.6E0,-1.8297873E0],"categories":[],"categories_nodes":[],"categories_segments":[],"categories_sizes":[],"default_left":[true,true,true,true,true,true,true,true,true,true,true,true,true,false,true,true,false,true,false,true,true,true,true,true,true,false,true,true,true,true,true,true,true,true,true,true,true,true,true,true,true,true,true,true,true,true,true,true,true,true,false,false,false,false,false,false,false,false,false,false,false,false,false,false,false,false,false,false,false,false,false,false,false,false,false,false,false,false,false,false,false,false,false,false,false,false,false,false,false,false,false,false,false],"id":0,"left_children":[1,3,5,7,9,11,13,15,17,19,21,23,25,-1,27,29,-1,31,-1,33,35,37,39,41,43,-1,45,47,49,51,53,55,57,59,61,63,65,67,69,71,73,75,77,79,81,83,85,87,89,91,-1,-1,-1,-1,-1,-1,-1,-1,-1,-1,-1,-1,-1,-1,-1,-1,-1,-1,-1,-1,-1,-1,-1,-1,-1,-1,-1,-1,-1,-1,-1,-1,-1,-1,-1,-1,-1,-1,-1,-1,-1,-1,-1],"loss_changes":[1.3291866E5,3.905375E4,1.2162609E4,1.3517676E2,4.1789844E4,1.8144922E3,3.6666921E3,1.1776367E1,8.267332E0,1.5784062E3,1.1127066E4,1.0833359E3,6.276895E2,0E0,4.084841E3,1.0652344E1,0E0,2.415882E0,0E0,2.7683594E2,2.5622773E3,1.2360703E3,5.4201E2,1.19078125E2,1.8870579E3,0E0,7.51291E2,8.2549634E2,1.07997925E2,2.34375E-1,3.3022447E0,2.720024E0,4E0,1.9913281E2,5.6198926E2,1.8219855E3,9.7349414E2,1.4392764E2,5.6466504E2,4.099673E2,3.7792969E0,8.422656E1,4.3840405E2,1.9045471E2,7.354048E2,4.4975635E2,1.6646027E1,6.995409E1,7.124785E2,5.3595222E1,0E0,0E0,0E0,0E0,0E0,0E0,0E0,0E0,0E0,0E0,0E0,0E0,0E0,0E0,0E0,0E0,0E0,0E0,0E0,0E0,0E0,0E0,0E0,0E0,0E0,0E0,0E0,0E0,0E0,0E0,0E0,0E0,0E0,0E0,0E0,0E0,0E0,0E0,0E0,0E0,0E0,0E0,0E0],"parents":[2147483647,0,0,1,1,2,2,3,3,4,4,5,5,6,6,7,7,8,8,9,9,10,10,11,11,12,12,14,14,15,15,17,17,19,19,20,20,21,21,22,22,23,23,24,24,26,26,27,27,28,28,29,29,30,30,31,31,32,32,33,33,34,34,35,35,36,36,37,37,38,38,39,39,40,40,41,41,42,42,43,43,44,44,45,45,46,46,47,47,48,48,49,49],"right_children":[2,4,6,8,10,12,14,16,18,20,22,24,26,-1,28,30,-1,32,-1,34,36,38,40,42,44,-1,46,48,50,52,54,56,58,60,62,64,66,68,70,72,74,76,78,80,82,84,86,88,90,92,-1,-1,-1,-1,-1,-1,-1,-1,-1,-1,-1,-1,-1,-1,-1,-1,-1,-1,-1,-1,-1,-1,-1,-1,-1,-1,-1,-1,-1,-1,-1,-1,-1,-1,-1,-1,-1,-1,-1,-1,-1,-1,-1],"split_conditions":[8.5E0,5E-1,7.468745E-1,5E-1,5E-1,1.5E0,1.3E1,1.5E0,1.5E0,1.4803857E-1,6.35E1,5.65E1,8.25E1,5.991177E-1,5E-1,2.25E1,-2.0000002E-1,2.95E1,2.7272728E-1,2.5E0,1.4822662E-1,5E-1,5E-1,1.5E0,1.25E1,5.9569895E-1,1.85E1,1.345346E-1,1.05E1,1.5E0,5.9459174E-1,1.85E1,9.838709E-2,6.5E0,5.35E1,1.95E1,2E0,8.032258E-1,3.65E1,1.05E1,3.5E0,7.5E0,2.5E0,9.5E0,1.5E0,5E-1,5.45E1,1.35E1,8.25E1,5.5E0,5.988412E-1,5.9965014E-1,5.8020115E-1,-3.529412E-2,3.4736842E-1,-1.3043478E-1,-4.4615388E-1,-3E-1,3E-1,-5.5525994E-1,4.3783784E-1,-2.9822123E-1,-5.506939E-1,4.447266E-1,-4.561798E-1,-4.6597648E-1,-1.083737E-1,3.6363637E-1,-5.8993715E-1,4.864612E-1,2.6676682E-1,-5.196305E-2,-4.81204E-1,-5.162791E-1,-5.9778124E-1,5.941601E-1,4.5846155E-1,1.0440836E-1,5.75153E-1,-5.4679805E-1,1.2251309E-1,-4.9295776E-2,5.5267674E-1,-4.7633967E-1,5.1789474E-1,5.9121954E-1,-2.0000002E-1,5.6326535E-2,4.6600497E-1,5.907336E-1,-4.2049554E-1,4.8000002E-1,-5.489362E-1],"split_indices":[26,5,18,3,3,8,20,9,10,23,25,17,25,0,3,30,0,17,0,2,23,28,27,16,26,0,26,23,26,2,21,25,23,26,25,20,26,18,20,30,2,14,2,28,2,3,28,26,25,29,0,0,0,0,0,0,0,0,0,0,0,0,0,0,0,0,0,0,0,0,0,0,0,0,0,0,0,0,0,0,0,0,0,0,0,0,0,0,0,0,0,0,0],"split_type":[0,0,0,0,0,0,0,0,0,0,0,0,0,0,0,0,0,0,0,0,0,0,0,0,0,0,0,0,0,0,0,0,0,0,0,0,0,0,0,0,0,0,0,0,0,0,0,0,0,0,0,0,0,0,0,0,0,0,0,0,0,0,0,0,0,0,0,0,0,0,0,0,0,0,0,0,0,0,0,0,0,0,0,0,0,0,0,0,0,0,0,0,0],"sum_hessian":[8.3625E4,5.25395E4,3.10855E4,4.18675E3,4.835275E4,2.75005E4,3.585E3,4.1695E3,1.725E1,4.003125E4,8.3215E3,2.690975E4,5.9075E2,6.79E2,2.906E3,4.16825E3,1.25E0,1.55E1,1.75E0,2.460675E4,1.54245E4,6.58925E3,1.73225E3,2.513775E4,1.772E3,1.385E2,4.5225E2,2.372E3,5.34E2,4.16125E3,7E0,1.35E1,2E0,2.109825E4,3.5085E3,8.4375E2,1.458075E4,1.3375E2,6.4555E3,8.0475E2,9.275E2,2.386175E4,1.276E3,2.4875E2,1.52325E3,3.4875E2,1.035E2,1.6E2,2.212E3,1.725E1,5.1675E2,2.57125E3,1.59E3,3.25E0,3.75E0,4.75E0,8.75E0,1E0,1E0,2.108075E4,1.75E1,1.22175E3,2.28675E3,5.11E2,3.3275E2,1.385925E4,7.215E2,1.55E1,1.1825E2,5.125E3,1.3305E3,4.32E2,3.7275E2,1.1725E2,8.1025E2,2.3424E4,4.3775E2,2.145E2,1.0615E3,2.02E2,4.675E1,2.12E2,1.31125E3,3.0225E2,4.65E1,1.015E2,2E0,6.025E1,9.975E1,6.375E1,2.14825E3,6.5E0,1.075E1],"tree_param":{"num_deleted":"0","num_feature":"31","num_nodes":"93","size_leaf_vector":"0"}},{"base_weights":[1.3521261E-3,-7.308561E-1,1.2593784E0,1.5135536E0,-9.206943E-1,1.4364883E0,-6.60422E-2,1.5229217E0,-5.9301233E-1,-1.2418708E0,6.0495204E-1,1.4661807E0,1.03547156E-1,-9.1744167E-1,6.8060285E-1,1.5237416E0,-5.590095E-1,-7.831178E-1,7.453163E-1,-1.4684621E0,-1.0818999E0,1.0532314E0,-1.056383E0,1.5094707E0,8.644909E-1,1.5390497E0,-3.2835692E-1,-1.2078283E0,1.5095404E0,1.2060632E-1,1.5261123E0,1.5254889E0,4.8490816E-1,-8.920568E-1,-0E0,1.9236628E0,-1.4798732E0,9.134492E-3,-1.1852964E0,-1.2179198E0,1.0989932E0,-3.383113E-1,-1.4078802E0,1.174833E0,1.52405E0,-1.0562991E0,1.1800545E0,-1.3117114E0,7.4593693E-1,8.83354E-1,-1.3253386E0,5.3921964E-2,1.5401016E0,-4.3709186E-1,1.4482646E0,1.5594628E0,-4.917627E-1,1.547921E0,1.4883825E0,7.887786E-1,-4.9704367E-1,4.232164E-2,-1.0229503E0,2.0745559E0,-1.2636235E0,-1.4921569E0,-6.569617E-1,-1.1658179E0,1.0071136E0,-1.2099245E0,1.7076914E0,9.948767E-1,-1.5165371E0,1.1650469E0,-1.7939618E-1,2.841523E-1,-1.389322E0,-1.0578508E0,-1.5467106E0,1.3765624E0,-1.3785024E0,1.5361607E0,1.301678E0,1.8325799E0,-1.2510017E0,-1.6048557E0,1.305523E0,-1.5187916E0,6.6516703E-1,-6.973996E-1,1.1711069E0,-1.4624743E0,1.1624907E0,-1.4351144E0,5.1905748E-2,7.8083134E-1,-9.181693E-1,-7.768432E-1,1.322771E0,-2.8337336E-1,1.6030184E0,3.856981E-1,1.5775166E0,-1.470485E0,1.536271E0],"categories":[],"categories_nodes":[],"categories_segments":[],"categories_sizes":[],"default_left":[true,true,true,true,true,true,true,true,true,true,true,true,true,true,true,true,false,true,false,true,true,true,true,true,true,false,true,true,true,true,true,true,true,true,false,true,true,true,true,true,true,true,true,true,true,true,true,true,true,true,true,true,false,true,true,true,true,false,false,false,false,false,false,false,false,false,false,false,false,false,false,false,false,false,false,false,false,false,false,false,false,false,false,false,false,false,false,false,false,false,false,false,false,false,false,false,false,false,false,false,false,false,false,false,false],"id":1,"left_children":[1,3,5,7,9,11,13,15,17,19,21,23,25,27,29,31,-1,33,-1,35,37,39,41,43,45,-1,47,49,51,53,55,57,59,61,-1,63,65,67,69,71,73,75,77,79,81,83,85,87,89,91,93,95,-1,97,99,101,103,-1,-1,-1,-1,-1,-1,-1,-1,-1,-1,-1,-1,-1,-1,-1,-1,-1,-1,-1,-1,-1,-1,-1,-1,-1,-1,-1,-1,-1,-1,-1,-1,-1,-1,-1,-1,-1,-1,-1,-1,-1,-1,-1,-1,-1,-1,-1,-1],"loss_changes":[7.1794445E4,2.0992613E4,6.7313086E3,7.673242E1,2.2259098E4,1.00096484E3,2.1498743E3,7.381836E0,5.095108E0,1.3586406E3,5.884897E3,6.431914E2,3.4290433E2,1.1154125E3,8.529671E2,6.2021484E0,0E0,1.3661995E0,0E0,6.0383594E2,2.481834E3,6.4801807E2,4.233766E2,1.1081641E2,1.0092876E3,0E0,4.5032535E2,3.4809766E2,7.448242E0,8.0402655E2,4.907495E1,8.7402344E-1,2.7457576E0,1.762701E0,0E0,2.7866089E1,1.5544922E2,2.2354639E3,1.4338574E3,8.302852E1,5.152886E2,3.6229962E2,5.313501E1,5.0048413E2,5.7558594E1,1.3458478E2,5.0137097E2,9.207016E1,1.2595135E2,5.1277103E1,2.022251E2,3.909216E0,0E0,4.5833905E2,8.6526E1,1.436084E1,2.6933853E1,0E0,0E0,0E0,0E0,0E0,0E0,0E0,0E0,0E0,0E0,0E0,0E0,0E0,0E0,0E0,0E0,0E0,0E0,0E0,0E0,0E0,0E0,0E0,0E0,0E0,0E0,0E0,0E0,0E0,0E0,0E0,0E0,0E0,0E0,0E0,0E0,0E0,0E0,0E0,0E0,0E0,0E0,0E0,0E0,0E0,0E0,0E0,0E0],"parents":[2147483647,0,0,1,1,2,2,3,3,4,4,5,5,6,6,7,7,8,8,9,9,10,10,11,11,12,12,13,13,14,14,15,15,17,17,19,19,20,20,21,21,22,22,23,23,24,24,26,26,27,27,28,28,29,29,30,30,31,31,32,32,33,33,35,35,36,36,37,37,38,38,39,39,40,40,41,41,42,42,43,43,44,44,45,45,46,46,47,47,48,48,49,49,50,50,51,51,53,53,54,54,55,55,56,56],"right_children":[2,4,6,8,10,12,14,16,18,20,22,24,26,28,30,32,-1,34,-1,36,38,40,42,44,46,-1,48,50,52,54,56,58,60,62,-1,64,66,68,70,72,74,76,78,80,82,84,86,88,90,92,94,96,-1,98,100,102,104,-1,-1,-1,-1,-1,-1,-1,-1,-1,-1,-1,-1,-1,-1,-1,-1,-1,-1,-1,-1,-1,-1,-1,-1,-1,-1,-1,-1,-1,-1,-1,-1,-1,-1,-1,-1,-1,-1,-1,-1,-1,-1,-1,-1,-1,-1,-1,-1],"split_conditions":[8.5E0,5E-1,7.468745E-1,5E-1,5E-1,1.5E0,8.5E0,1.5E0,1.5E0,1.5E0,6.25E1,5.65E1,8.25E1,5E-1,2.4801922E-1,2.25E1,-1.6770285E-1,2.95E1,2.235949E-1,5E-1,1.95E1,5E-1,3.5E0,1.05E1,1.25E1,4.6171495E-1,2.5E0,1.3244154E-1,1.05E1,1.55E1,3.25E1,1.5E0,1.3E1,8.012821E-2,-0E0,6E0,6.5E0,1.5E0,6.5E0,7.717122E-1,5E-1,1.65E1,5E-1,7.5E0,1.5E0,1.18264094E-1,1.5E0,1.65E1,1.25E1,1.05E1,2.5E0,4.5E0,4.620305E-1,5E-1,1.5E0,1.5E0,1.5E0,4.643763E-1,4.4651476E-1,2.3663358E-1,-1.491131E-1,1.26964925E-2,-3.068851E-1,6.223668E-1,-3.7908706E-1,-4.4764706E-1,-1.9708851E-1,-3.4974536E-1,3.021341E-1,-3.6297736E-1,5.1230747E-1,2.9846302E-1,-4.5496115E-1,3.495141E-1,-5.3818855E-2,8.524569E-2,-4.1679662E-1,-3.1735528E-1,-4.640132E-1,4.1296872E-1,-4.1355073E-1,4.6084824E-1,3.905034E-1,5.49774E-1,-3.7530053E-1,-4.8145673E-1,3.9165694E-1,-4.5563748E-1,1.9955012E-1,-2.0921989E-1,3.513321E-1,-4.387423E-1,3.4874722E-1,-4.3053433E-1,1.5571725E-2,2.3424941E-1,-2.754508E-1,-2.3305297E-1,3.968313E-1,-8.501201E-2,4.8090553E-1,1.1570944E-1,4.7325498E-1,-4.411455E-1,4.6088132E-1],"split_indices":[26,5,18,3,3,8,28,9,10,2,25,17,25,3,22,30,0,17,0,24,20,28,2,26,26,0,2,23,26,26,19,2,2,23,0,10,12,12,26,18,27,30,11,14,16,23,5,26,26,26,2,29,0,3,5,5,2,0,0,0,0,0,0,0,0,0,0,0,0,0,0,0,0,0,0,0,0,0,0,0,0,0,0,0,0,0,0,0,0,0,0,0,0,0,0,0,0,0,0,0,0,0,0,0,0],"split_type":[0,0,0,0,0,0,0,0,0,0,0,0,0,0,0,0,0,0,0,0,0,0,0,0,0,0,0,0,0,0,0,0,0,0,0,0,0,0,0,0,0,0,0,0,0,0,0,0,0,0,0,0,0,0,0,0,0,0,0,0,0,0,0,0,0,0,0,0,0,0,0,0,0,0,0,0,0,0,0,0,0,0,0,0,0,0,0,0,0,0,0,0,0,0,0,0,0,0,0,0,0,0,0,0,0],"sum_hessian":[7.793909E4,4.926553E4,2.8673566E4,3.841496E3,4.5424035E4,2.5293611E4,3.3799546E3,3.8247642E3,1.6731998E1,3.75246E4,7.8994307E3,2.4742355E4,5.512569E2,1.5790897E3,1.800865E3,3.8235266E3,1.2375829E0,1.501414E1,1.7178578E0,1.5525403E4,2.19992E4,6.221141E3,1.6782896E3,2.3080281E4,1.6620736E3,1.26904854E2,4.2435205E2,1.4107917E3,1.6829788E2,1.0840327E3,7.168323E2,3.8166384E3,6.8881016E0,1.3058474E1,1.9556665E0,5.1490242E1,1.5473913E4,1.9044509E3,2.0094748E4,1.2236909E2,6.098772E3,5.5218866E2,1.1261008E3,9.669739E2,2.2113309E4,2.3419785E2,1.4278759E3,2.2143793E2,2.0291412E2,7.471238E1,1.3360795E3,3.5176618E0,1.6478023E2,7.638426E2,3.2019012E2,7.054009E2,1.1431365E1,2.3532856E3,1.4633529E3,5.4105124E0,1.4775891E0,1.6876822E0,1.1370791E1,4.94961E1,1.994139E0,1.5245527E4,2.2838521E2,8.745947E2,1.0298562E3,1.9925703E4,1.6904564E2,1.4272944E1,1.08096146E2,5.799218E3,2.99554E2,3.4725543E2,2.0493323E2,3.222475E2,8.0385333E2,8.9659796E2,7.0375916E1,2.0965584E4,1.1477238E3,1.4256489E1,2.1994135E2,6.104844E1,1.3668274E3,2.0065121E2,2.078671E1,4.602647E1,1.5688766E2,7.4940543E0,6.721832E1,1.2374076E3,9.867188E1,2.1252189E0,1.392443E0,6.4070874E2,1.2313383E2,2.6199242E1,2.9399088E2,1.1024215E1,6.943767E2,7.8957996E0,3.5355656E0],"tree_param":{"num_deleted":"0","num_feature":"31","num_nodes":"105","size_leaf_vector":"0"}},{"base_weights":[3.5118589E-3,-5.974199E-1,1.0718123E0,1.3056521E0,-7.5032026E-1,1.271554E0,1.7525114E-1,1.3144692E0,-4.4643006E-1,-1.0160285E0,4.7601536E-1,1.299668E0,2.189072E-1,-1.711217E-1,1.3432418E0,1.3152913E0,-4.7335055E-1,-7.5692636E-1,1.6047272E-1,-1.2344505E0,-8.680956E-1,8.522618E-1,-7.945767E-1,1.3512688E0,1.2038132E0,1.3378277E0,-4.0492338E-1,3.7478256E-1,-9.841438E-1,-8.5531825E-1,1.3802242E0,1.3171846E0,3.6068293E-1,-9.164571E-3,-1.1032399E0,5.9005594E-1,-9.7729266E-1,1.445527E0,-1.2443408E0,-5.2608275E-1,-1.1520727E0,-1.0269963E0,8.878564E-1,-3.2236645E-1,-1.3385454E0,1.3492874E0,1.4737055E0,-1.2361335E0,1.2499015E0,-9.6083426E-1,9.64678E-1,-4.6458316E-1,9.712668E-1,-3.3720994E-1,-1.2682936E0,5.791409E-1,-1.6501976E0,1.3438689E0,1.2737448E0,-2.0475093E-1,8.105181E-1,-9.686367E-1,7.300282E-1,-1.2981484E0,-1.0552791E-1,1.0661627E0,1.4582485E-1,1.5670179E0,-1.0548187E0,2.3774981E0,-1.247812E0,-8.9192593E-1,-9.39858E-2,-1.1815311E0,1.1215544E0,7.5376725E-1,-1.3363687E0,1.117446E0,6.027632E-1,-2.4682676E-2,-1.0820223E0,-9.3001956E-1,-1.3501359E0,1.5899751E0,1.3675387E0,-2.3831596E0,4.8750848E-1,4.3293467E-1,1.2856463E0,-1.2370639E0,1.3365697E0,1.56874E-1,1.3475957E0,-7.786695E-1,1.021747E0,5.433619E-1,1.347521E0,-1.1097746E0,1.5819441E-1,-1.321458E0,8.711357E-1,1.2413898E0,-9.4641244E-1],"categories":[],"categories_nodes":[],"categories_segments":[],"categories_sizes":[],"default_left":[true,true,true,true,true,true,true,true,true,true,true,true,true,true,true,true,false,true,true,true,true,true,true,true,true,false,true,true,true,true,false,true,true,true,true,true,false,true,true,true,true,true,true,true,true,false,true,true,true,true,true,true,true,true,true,true,false,false,false,false,false,false,false,false,false,false,false,false,false,false,false,false,false,false,false,false,false,false,false,false,false,false,false,false,false,false,false,false,false,false,false,false,false,false,false,false,false,false,false,false,false,false,false],"id":2,"left_children":[1,3,5,7,9,11,13,15,17,19,21,23,25,27,29,31,-1,33,35,37,39,41,43,45,47,-1,49,51,53,55,-1,57,59,61,63,65,-1,67,69,71,73,75,77,79,81,-1,83,85,87,89,91,93,95,97,99,101,-1,-1,-1,-1,-1,-1,-1,-1,-1,-1,-1,-1,-1,-1,-1,-1,-1,-1,-1,-1,-1,-1,-1,-1,-1,-1,-1,-1,-1,-1,-1,-1,-1,-1,-1,-1,-1,-1,-1,-1,-1,-1,-1,-1,-1,-1,-1],"loss_changes":[4.344527E4,1.2603704E4,4.3627344E3,5.0351074E1,1.3063992E4,5.893496E2,1.7964824E3,5.3344727E0,3.3016617E0,1.0636602E3,3.4140903E3,9.4359375E1,3.631547E2,1.520653E3,8.376135E1,5.315918E0,0E0,2.9263453E0,3.7716768E0,3.5441602E2,1.9078037E3,3.6944287E2,4.1872766E2,1.0683594E0,7.6622363E2,0E0,2.5545697E2,1.0268496E3,2.5257251E2,2.0817566E1,0E0,1.9946289E0,2.1293602E0,3.967984E0,1.3684826E0,9.800354E-1,0E0,1.6652306E1,1.6961328E2,1.4092957E3,7.203037E2,5.7683723E1,3.5327246E2,1.978067E2,2.333252E0,0E0,1.699524E-1,2.5139255E2,1.9435254E2,1.5287343E2,2.9797478E1,3.986872E2,1.9226636E2,1.6145282E2,1.0987842E2,8.197574E0,0E0,0E0,0E0,0E0,0E0,0E0,0E0,0E0,0E0,0E0,0E0,0E0,0E0,0E0,0E0,0E0,0E0,0E0,0E0,0E0,0E0,0E0,0E0,0E0,0E0,0E0,0E0,0E0,0E0,0E0,0E0,0E0,0E0,0E0,0E0,0E0,0E0,0E0,0E0,0E0,0E0,0E0,0E0,0E0,0E0,0E0,0E0],"parents":[2147483647,0,0,1,1,2,2,3,3,4,4,5,5,6,6,7,7,8,8,9,9,10,10,11,11,12,12,13,13,14,14,15,15,17,17,18,18,19,19,20,20,21,21,22,22,23,23,24,24,26,26,27,27,28,28,29,29,31,31,32,32,33,33,34,34,35,35,37,37,38,38,39,39,40,40,41,41,42,42,43,43,44,44,46,46,47,47,48,48,49,49,50,50,51,51,52,52,53,53,54,54,55,55],"right_children":[2,4,6,8,10,12,14,16,18,20,22,24,26,28,30,32,-1,34,36,38,40,42,44,46,48,-1,50,52,54,56,-1,58,60,62,64,66,-1,68,70,72,74,76,78,80,82,-1,84,86,88,90,92,94,96,98,100,102,-1,-1,-1,-1,-1,-1,-1,-1,-1,-1,-1,-1,-1,-1,-1,-1,-1,-1,-1,-1,-1,-1,-1,-1,-1,-1,-1,-1,-1,-1,-1,-1,-1,-1,-1,-1,-1,-1,-1,-1,-1,-1,-1,-1,-1,-1,-1],"split_conditions":[8.5E0,5E-1,5.65E1,5E-1,5E-1,1.5E0,5E-1,1.5E0,5E-1,1.5E0,5.95E1,8.25E1,8.25E1,6.5E0,1.05E1,2.25E1,-1.4200518E-1,1.85E1,1.7914438E-1,5E-1,4.35E1,5E-1,5E-1,1.5E0,1.5E0,4.0134832E-1,3.5E0,7.5E0,4.9443834E-2,5E0,4.140673E-1,1.5E0,5.9459174E-1,1.25E1,2.5E0,8.46875E-1,-2.931878E-1,6E0,6.5E0,1.4760348E-1,6.5E0,9.019139E-1,3.65E1,4.5E0,2.5E0,4.0478623E-1,2.5E0,1.55E1,1.05E1,1.75E1,6.655702E-1,1.55E1,1.75E1,7.5E0,3.618777E-1,5E-1,-4.950593E-1,4.0316066E-1,3.8212347E-1,-6.142528E-2,2.4315543E-1,-2.9059103E-1,2.1900848E-1,-3.8944453E-1,-3.1658374E-2,3.1984884E-1,4.3747455E-2,4.7010538E-1,-3.1644565E-1,7.1324944E-1,-3.7434363E-1,-2.675778E-1,-2.8195743E-2,-3.5445935E-1,3.364663E-1,2.2613019E-1,-4.0091062E-1,3.352338E-1,1.8082896E-1,-7.4048033E-3,-3.2460672E-1,-2.790059E-1,-4.050408E-1,4.7699255E-1,4.1026163E-1,-7.1494794E-1,1.4625254E-1,1.2988041E-1,3.856939E-1,-3.7111917E-1,4.009709E-1,4.7062203E-2,4.0427873E-1,-2.3360085E-1,3.065241E-1,1.6300857E-1,4.042563E-1,-3.3293238E-1,4.7458325E-2,-3.964374E-1,2.6134074E-1,3.7241694E-1,-2.8392375E-1],"split_indices":[26,5,17,3,3,8,3,9,10,2,25,25,25,10,26,30,0,25,23,24,25,28,27,16,2,0,2,28,22,29,0,2,21,20,30,21,0,10,17,23,26,18,25,2,2,0,2,26,26,26,21,26,28,28,22,8,0,0,0,0,0,0,0,0,0,0,0,0,0,0,0,0,0,0,0,0,0,0,0,0,0,0,0,0,0,0,0,0,0,0,0,0,0,0,0,0,0,0,0,0,0,0,0],"split_type":[0,0,0,0,0,0,0,0,0,0,0,0,0,0,0,0,0,0,0,0,0,0,0,0,0,0,0,0,0,0,0,0,0,0,0,0,0,0,0,0,0,0,0,0,0,0,0,0,0,0,0,0,0,0,0,0,0,0,0,0,0,0,0,0,0,0,0,0,0,0,0,0,0,0,0,0,0,0,0,0,0,0,0,0,0,0,0,0,0,0,0,0,0,0,0,0,0,0,0,0,0,0,0],"sum_hessian":[6.7672336E4,4.3310246E4,2.4362092E4,3.220374E3,4.008987E4,1.9923078E4,4.4390127E3,3.2044976E3,1.5876344E1,3.295067E4,7.1391997E3,1.9404588E4,5.1849036E2,3.4243577E3,1.0146551E3,3.2032888E3,1.2086824E0,1.0339419E1,5.5369244E0,1.3302411E4,1.964826E4,5.50839E3,1.6308096E3,1.2605604E4,6.798985E3,1.8518774E2,3.3330258E2,2.0490562E3,1.3753013E3,1.6419302E1,9.982358E2,3.1965696E3,6.719246E0,3.597704E0,6.741715E0,4.3687987E0,1.1681259E0,4.8377594E1,1.3254033E4,8.914625E3,1.0733635E4,1.018761E2,5.406514E3,8.7383795E2,7.569716E2,1.24166875E4,1.8891615E2,1.2556694E2,6.673418E3,2.3728773E2,9.6014854E1,8.5131573E2,1.1977405E3,4.2038434E2,9.54917E2,5.951138E0,1.04681635E1,1.9616334E3,1.2349363E3,3.218494E0,3.500752E0,1.4305074E0,2.1671965E0,5.388012E0,1.3537033E0,1.4329787E0,2.9358199E0,4.649185E1,1.8857425E0,1.20358715E1,1.3241997E4,4.8268315E3,4.0877937E3,1.0596817E4,1.3681795E2,1.4866623E1,8.7009476E1,2.9931611E3,2.4133528E3,6.2855914E2,2.4527885E2,2.3125135E1,7.3384644E2,8.349723E1,1.05418915E2,7.516471E1,5.040223E1,2.8029272E2,6.393125E3,2.122315E2,2.5056229E1,3.133023E1,6.468462E1,7.0319507E2,1.481207E2,5.6154865E2,6.3619183E2,1.6376256E2,2.566218E2,9.321359E2,2.2781046E1,4.279611E0,1.6715271E0],"tree_param":{"num_deleted":"0","num_feature":"31","num_nodes":"103","size_leaf_vector":"0"}},{"base_weights":[5.8907443E-3,-5.016035E-1,9.5301086E-1,1.1828872E0,-6.27332E-1,1.1486702E0,1.47432E-1,1.1920011E0,-3.6795813E-1,-8.53724E-1,3.808628E-1,1.1752938E0,1.929732E-1,-1.7423248E-1,1.1514001E0,1.1950223E0,4.7638962E-1,-5.114125E-1,5.704988E-1,-9.4692296E-1,-4.262014E-1,6.402262E-1,-8.940786E-1,1.1958089E0,8.284763E-1,1.222724E0,-3.378487E-1,1.2248893E0,-3.5937655E-1,-5.066719E-1,1.2165451E0,1.2291497E0,1.1404034E0,-3.7051776E-1,9.023492E-1,-1.0450995E-1,-6.842287E-1,-7.4859875E-1,-1.1121289E0,6.548597E-2,-1.0650285E0,7.1326905E-1,-4.419103E-1,-5.4918927E-1,-1.2133574E0,1.2055516E0,7.4847275E-1,1.0214522E0,-1.678219E0,-9.512791E-1,5.305916E-1,-5.7969487E-1,1.15939E0,-1.3839569E0,1.4161867E0,1.2429727E0,-1.0613267E0,1.1429639E0,-6.884546E-1,-9.06015E-1,1.3172212E-1,1.5768407E-1,1.0964053E0,-9.843197E-1,6.785043E-1,-8.975617E-1,1.7653432E-1,-1.1832286E0,-2.6905352E-1,-1.1457946E0,-3.5440615E-1,-5.8792394E-1,3.197266E-1,-9.1839474E-1,-1.2690265E0,-1.613194E0,7.3583776E-1,9.190967E-1,-1.0474132E0,1.1253668E-1,-8.615371E-1,-1.2181027E0,-5.877475E-1,1.207683E0,-2.916403E-1,-2.1566112E0,1.3059539E0,-1.2280077E0,1.1758746E0,-2.5946527E0,1.2054664E0,-1.1834095E0,1.8344512E0,-8.272698E-1,8.9394987E-1,1.5972855E0,-6.881531E-1,-7.00233E-1,1.2475551E0,-1.4488031E0,-3.9521657E-2,9.966636E-1,1.3190567E0,9.53412E-1,-1.6638287E0],"categories":[],"categories_nodes":[],"categories_segments":[],"categories_sizes":[],"default_left":[true,true,true,true,true,true,true,true,true,true,true,true,true,true,true,true,true,true,false,true,true,true,true,true,true,false,true,false,true,true,true,false,true,true,true,true,true,true,true,true,true,true,true,true,true,true,true,true,true,true,true,true,true,true,false,true,true,false,false,false,false,false,false,false,false,false,false,false,false,false,false,false,false,false,false,false,false,false,false,false,false,false,false,false,false,false,false,false,false,false,false,false,false,false,false,false,false,false,false,false,false,false,false,false,false],"id":3,"left_children":[1,3,5,7,9,11,13,15,17,19,21,23,25,27,29,31,33,35,-1,37,39,41,43,45,47,-1,49,-1,51,53,55,-1,57,59,61,63,65,67,69,71,73,75,77,79,81,83,85,87,89,91,93,95,97,99,-1,101,103,-1,-1,-1,-1,-1,-1,-1,-1,-1,-1,-1,-1,-1,-1,-1,-1,-1,-1,-1,-1,-1,-1,-1,-1,-1,-1,-1,-1,-1,-1,-1,-1,-1,-1,-1,-1,-1,-1,-1,-1,-1,-1,-1,-1,-1,-1,-1,-1],"loss_changes":[2.7560955E4,7.9078525E3,3.1530215E3,3.7095215E1,7.930204E3,4.0931055E2,1.26306E3,5.005371E0,2.4344776E0,1.1300664E3,2.1074849E3,1.1042578E2,2.3951942E2,7.678396E2,1.03124146E2,3.383545E0,4.844825E0,9.3638086E-1,0E0,7.623496E2,1.5956625E3,4.1885205E2,1.1798224E2,6.3521484E1,4.2633502E2,0E0,1.5468927E2,0E0,8.763685E2,6.367123E1,5.6306396E1,0E0,5.4744873E0,1.4353147E0,1.0713344E0,4.42446E0,1.972713E0,2.2066025E3,3.2370215E2,4.7720074E2,6.492407E1,2.616482E2,2.7738885E2,1.0753314E2,9.4262695E-1,4.651367E1,5.173866E2,2.8478314E2,1.6994797E2,1.1208467E2,6.0169E1,5.408902E2,5.5286255E1,2.1769524E0,0E0,1.56154785E1,1.4957694E1,0E0,0E0,0E0,0E0,0E0,0E0,0E0,0E0,0E0,0E0,0E0,0E0,0E0,0E0,0E0,0E0,0E0,0E0,0E0,0E0,0E0,0E0,0E0,0E0,0E0,0E0,0E0,0E0,0E0,0E0,0E0,0E0,0E0,0E0,0E0,0E0,0E0,0E0,0E0,0E0,0E0,0E0,0E0,0E0,0E0,0E0,0E0,0E0],"parents":[2147483647,0,0,1,1,2,2,3,3,4,4,5,5,6,6,7,7,8,8,9,9,10,10,11,11,12,12,13,13,14,14,15,15,16,16,17,17,19,19,20,20,21,21,22,22,23,23,24,24,26,26,28,28,29,29,30,30,32,32,33,33,34,34,35,35,36,36,37,37,38,38,39,39,40,40,41,41,42,42,43,43,44,44,45,45,46,46,47,47,48,48,49,49,50,50,51,51,52,52,53,53,55,55,56,56],"right_children":[2,4,6,8,10,12,14,16,18,20,22,24,26,28,30,32,34,36,-1,38,40,42,44,46,48,-1,50,-1,52,54,56,-1,58,60,62,64,66,68,70,72,74,76,78,80,82,84,86,88,90,92,94,96,98,100,-1,102,104,-1,-1,-1,-1,-1,-1,-1,-1,-1,-1,-1,-1,-1,-1,-1,-1,-1,-1,-1,-1,-1,-1,-1,-1,-1,-1,-1,-1,-1,-1,-1,-1,-1,-1,-1,-1,-1,-1,-1,-1,-1,-1,-1,-1,-1,-1,-1,-1],"split_conditions":[8.5E0,5E-1,5.65E1,5E-1,5E-1,1.5E0,1.75E1,8.5E0,1.5E0,2.5E0,7.05E1,1.5E0,8.25E1,1.3E1,1.5E0,1.5E0,7.1501017E-1,1.85E1,1.7114966E-1,3.65E1,6.05E1,5E-1,5E-1,7.5E0,2.55E1,3.668172E-1,1.35E1,3.674668E-1,5E-1,1.5E0,5E-1,3.687449E-1,5E-1,3.95E1,5E-1,1.25E1,2.5E0,1.5E0,2E0,4.5E0,5E-1,4.553429E-1,2.5E0,4.5E0,4.5E0,4.45E1,1.19E2,1.5E0,1.55E1,5E-1,2.5E0,8.25E1,1.05E1,8.533597E-1,4.2485604E-1,1.95E1,1E0,3.428892E-1,-2.065364E-1,-2.718045E-1,3.951664E-2,4.7305223E-2,3.289216E-1,-2.9529592E-1,2.0355129E-1,-2.6926854E-1,5.29603E-2,-3.549686E-1,-8.071606E-2,-3.437384E-1,-1.0632185E-1,-1.7637719E-1,9.591798E-2,-2.7551845E-1,-3.8070798E-1,-4.839582E-1,2.2075133E-1,2.7572903E-1,-3.1422397E-1,3.3761006E-2,-2.5846115E-1,-3.6543083E-1,-1.7632426E-1,3.623049E-1,-8.749209E-2,-6.469834E-1,3.917862E-1,-3.684023E-1,3.527624E-1,-7.7839583E-1,3.6163992E-1,-3.5502285E-1,5.503354E-1,-2.4818094E-1,2.6818496E-1,4.7918567E-1,-2.0644593E-1,-2.1006991E-1,3.7426656E-1,-4.3464094E-1,-1.1856497E-2,2.9899907E-1,3.9571705E-1,2.8602362E-1,-4.9914864E-1],"split_indices":[26,5,17,3,3,8,26,2,10,2,25,16,25,20,5,2,21,25,0,25,25,27,27,14,30,0,26,0,3,2,6,0,19,30,27,20,30,12,26,28,27,18,2,12,16,28,25,2,26,15,19,25,26,21,0,26,8,0,0,0,0,0,0,0,0,0,0,0,0,0,0,0,0,0,0,0,0,0,0,0,0,0,0,0,0,0,0,0,0,0,0,0,0,0,0,0,0,0,0,0,0,0,0,0,0],"split_type":[0,0,0,0,0,0,0,0,0,0,0,0,0,0,0,0,0,0,0,0,0,0,0,0,0,0,0,0,0,0,0,0,0,0,0,0,0,0,0,0,0,0,0,0,0,0,0,0,0,0,0,0,0,0,0,0,0,0,0,0,0,0,0,0,0,0,0,0,0,0,0,0,0,0,0,0,0,0,0,0,0,0,0,0,0,0,0,0,0,0,0,0,0,0,0,0,0,0,0,0,0,0,0,0,0],"sum_hessian":[5.7338062E4,3.7333938E4,2.0004127E4,2.5924392E3,3.4741496E4,1.609463E4,3.9094978E3,2.5775232E3,1.4916101E1,2.837091E4,6.3705864E3,1.5658198E4,4.3643158E2,2.9614849E3,9.4801294E2,2.56602E3,1.1503145E1,1.3333036E1,1.583065E0,2.3292074E4,5.0788354E3,5.2940977E3,1.0764889E3,1.4781396E4,8.7680206E2,1.4800691E2,2.8842468E2,3.4543546E2,2.6160493E3,3.558277E1,9.124302E2,1.5660231E3,9.999969E2,3.893036E0,7.6101093E0,4.453005E0,8.880032E0,1.0587577E4,1.2704498E4,2.8704373E3,2.208398E3,4.959667E3,3.3443054E2,5.187972E2,5.576917E2,1.4464668E4,3.167282E2,8.146773E2,6.2124763E1,1.6897343E2,1.1945124E2,2.2851716E3,3.308778E2,2.4627144E1,1.0955627E1,9.024148E2,1.00153675E1,9.9897327E2,1.0236279E0,1.4950441E0,2.397992E0,1.947893E0,5.6622167E0,1.975832E0,2.477173E0,7.082052E0,1.7979797E0,5.5531143E3,5.034463E3,1.2163557E4,5.409409E2,8.0366626E2,2.066771E3,1.2880499E3,9.203481E2,4.6973667E1,4.9126934E3,1.0281416E2,2.3161638E2,1.6656334E2,3.5223386E2,5.525536E2,5.1381683E0,1.44443E4,2.0368645E1,5.0532154E1,2.6619604E2,5.1887222E1,7.627901E2,4.7218864E1,1.4905899E1,1.5650713E2,1.2466298E1,2.4947243E1,9.4504E1,1.07794075E2,2.1773774E3,1.4662689E1,3.1621512E2,2.3419903E1,1.2072408E0,2.1629517E2,6.861196E2,2.1715117E0,7.8438554E0],"tree_param":{"num_deleted":"0","num_feature":"31","num_nodes":"105","size_leaf_vector":"0"}},{"base_weights":[7.466714E-3,-4.2759576E-1,8.610798E-1,1.0996754E0,-5.3166795E-1,1.0700157E0,9.866224E-2,1.1093117E0,-2.951027E-1,-7.282257E-1,3.0152673E-1,1.0973128E0,1.5258975E-1,-2.429256E-1,8.235244E-1,1.1576959E0,1.0350472E0,-5.773328E-1,2.1364824E-1,-9.89475E-1,-5.7100964E-1,6.185827E-1,-4.649665E-1,1.168729E0,9.6924585E-1,1.1384811E0,-3.1282854E-1,1.1538783E0,-4.2073455E-1,-2.250678E-1,1.0628272E0,1.0385796E0,-6.397229E-1,-4.8084028E-2,-8.517551E-1,6.405143E-1,-4.9099505E-1,-1.0242275E0,-1.11729905E-1,-2.6741573E-1,-8.9632046E-1,-9.047565E-1,6.581203E-1,-1.4996777E-1,-1.1282732E0,1.6537869E0,1.1637695E0,-9.566732E-1,1.022598E0,1.1543415E0,3.6505494E-1,-7.6681906E-1,6.8856347E-1,-5.4538906E-1,1.0256473E0,-1.001207E0,1.0042577E0,-6.800772E-1,1.1356044E0,1.0458251E0,2.255467E-1,-7.3209274E-1,4.2445642E-1,-1.0269539E0,-1.1746788E-1,1.1742428E-1,7.711807E-1,-1.1048299E0,-8.8137585E-1,2.3447492E0,-7.887455E-1,-7.650844E-1,8.914905E-3,-1.0401947E0,-6.872099E-1,8.1284773E-1,-1.0917648E0,6.703314E-1,-4.0447845E0,3.495142E-2,-1.0996051E0,-8.4664714E-1,-1.1988318E0,-1.6540139E0,1.3591443E-1,1.1479802E0,6.2031907E-1,7.4534506E-1,-3.2514176E-1,-9.9005544E-1,1.1295754E0,-1.03176914E-1,1.0089757E0,1.394808E0,-6.339588E-1,-5.2054363E-1,1.1716677E0,-1.3794143E0,1.3489426E0,1.8720164E0,-3.5881674E-1,1.2342105E0,-1.5725166E0,1.1567513E0,-7.501334E-1],"categories":[],"categories_nodes":[],"categories_segments":[],"categories_sizes":[],"default_left":[true,true,true,true,true,true,true,true,true,true,true,true,true,true,true,false,true,true,true,true,true,true,true,true,true,true,true,false,true,true,true,true,false,true,true,true,false,true,true,true,true,true,true,true,true,false,false,true,true,false,true,true,true,true,true,true,true,true,true,false,false,false,false,false,false,false,false,false,false,false,false,false,false,false,false,false,false,false,false,false,false,false,false,false,false,false,false,false,false,false,false,false,false,false,false,false,false,false,false,false,false,false,false,false,false],"id":4,"left_children":[1,3,5,7,9,11,13,15,17,19,21,23,25,27,29,-1,31,33,35,37,39,41,43,45,47,49,51,-1,53,55,57,59,-1,61,63,65,-1,67,69,71,73,75,77,79,81,-1,-1,83,85,-1,87,89,91,93,95,97,99,101,103,-1,-1,-1,-1,-1,-1,-1,-1,-1,-1,-1,-1,-1,-1,-1,-1,-1,-1,-1,-1,-1,-1,-1,-1,-1,-1,-1,-1,-1,-1,-1,-1,-1,-1,-1,-1,-1,-1,-1,-1,-1,-1,-1,-1,-1,-1],"loss_changes":[1.795894E4,5.091976E3,2.600544E3,2.779712E1,4.911592E3,3.207373E2,8.6997253E2,6.0961914E0,2.25032E0,9.9607227E2,1.3915898E3,1.12677734E2,1.7078146E2,5.9367346E2,2.8263104E2,0E0,5.457947E0,1.3820693E0,2.123867E0,2.779287E2,1.4961343E3,2.4453857E2,3.4996594E2,1.728125E1,4.5933154E2,1.0423126E0,1.1558939E2,0E0,3.8268478E2,2.0130602E2,1.1701758E2,4.52948E0,0E0,1.7346733E0,7.017336E-1,1.9515085E-1,0E0,9.997949E1,5.8104504E2,1.0779861E3,2.1931934E2,3.393447E1,2.2945801E2,1.9976358E2,9.703857E0,0E0,0E0,9.223163E1,2.1824219E2,0E0,1.2555687E0,7.504101E1,2.0265888E1,3.3630377E2,3.8655914E1,1.166866E2,9.736121E1,6.576422E1,3.596338E1,0E0,0E0,0E0,0E0,0E0,0E0,0E0,0E0,0E0,0E0,0E0,0E0,0E0,0E0,0E0,0E0,0E0,0E0,0E0,0E0,0E0,0E0,0E0,0E0,0E0,0E0,0E0,0E0,0E0,0E0,0E0,0E0,0E0,0E0,0E0,0E0,0E0,0E0,0E0,0E0,0E0,0E0,0E0,0E0,0E0,0E0],"parents":[2147483647,0,0,1,1,2,2,3,3,4,4,5,5,6,6,7,7,8,8,9,9,10,10,11,11,12,12,13,13,14,14,16,16,17,17,18,18,19,19,20,20,21,21,22,22,23,23,24,24,25,25,26,26,28,28,29,29,30,30,31,31,33,33,34,34,35,35,37,37,38,38,39,39,40,40,41,41,42,42,43,43,44,44,47,47,48,48,50,50,51,51,52,52,53,53,54,54,55,55,56,56,57,57,58,58],"right_children":[2,4,6,8,10,12,14,16,18,20,22,24,26,28,30,-1,32,34,36,38,40,42,44,46,48,50,52,-1,54,56,58,60,-1,62,64,66,-1,68,70,72,74,76,78,80,82,-1,-1,84,86,-1,88,90,92,94,96,98,100,102,104,-1,-1,-1,-1,-1,-1,-1,-1,-1,-1,-1,-1,-1,-1,-1,-1,-1,-1,-1,-1,-1,-1,-1,-1,-1,-1,-1,-1,-1,-1,-1,-1,-1,-1,-1,-1,-1,-1,-1,-1,-1,-1,-1,-1,-1,-1],"split_conditions":[7.5E0,5E-1,5.65E1,5E-1,5E-1,1.5E0,1.55E1,1.5E0,5E-1,1.5E0,5.25E1,8.25E1,8.35E1,1.3E1,1.5E0,3.4730878E-1,5E-1,1.85E1,1.4642859E-1,2E0,4.45E1,1.5E0,5E-1,8.5E0,1.5E0,5.35E1,3.5E0,3.461635E-1,5E-1,9.5E0,1.5E0,1.85E1,-1.9191687E-1,1.25E1,2.5E0,2.45E1,-1.4729851E-1,6.5E0,8.25E1,1.5E0,2.5E0,7.717122E-1,3.998021E-1,1.75E1,3.5E0,4.961361E-1,3.4913087E-1,1.5E0,1.3092121E-1,3.4630245E-1,8.25E1,1.75E1,1.25E1,8.25E1,1.05E1,1.95E1,1.95E1,9.5E0,5E-1,3.1374756E-1,6.766401E-2,-2.1962783E-1,1.2733693E-1,-3.080862E-1,-3.5240367E-2,3.5227284E-2,2.3135422E-1,-3.3144897E-1,-2.6441276E-1,7.034248E-1,-2.3662366E-1,-2.2952533E-1,2.6744716E-3,-3.1205845E-1,-2.0616297E-1,2.4385433E-1,-3.2752946E-1,2.0109944E-1,-1.2134354E0,1.0485426E-2,-3.2988155E-1,-2.5399417E-1,-3.5964954E-1,-4.9620417E-1,4.077433E-2,3.443941E-1,1.8609573E-1,2.2360353E-1,-9.754253E-2,-2.9701665E-1,3.388726E-1,-3.0953076E-2,3.0269274E-1,4.1844243E-1,-1.9018765E-1,-1.561631E-1,3.5150033E-1,-4.1382432E-1,4.0468282E-1,5.61605E-1,-1.0764503E-1,3.7026316E-1,-4.71755E-1,3.470254E-1,-2.2504003E-1],"split_indices":[26,5,17,3,3,8,26,2,10,2,25,25,25,20,2,0,19,25,23,26,25,28,27,26,2,20,2,0,3,28,5,30,0,20,30,17,0,28,25,12,2,18,22,30,2,0,0,14,18,0,25,26,26,25,26,26,26,10,6,0,0,0,0,0,0,0,0,0,0,0,0,0,0,0,0,0,0,0,0,0,0,0,0,0,0,0,0,0,0,0,0,0,0,0,0,0,0,0,0,0,0,0,0,0,0],"split_type":[0,0,0,0,0,0,0,0,0,0,0,0,0,0,0,0,0,0,0,0,0,0,0,0,0,0,0,0,0,0,0,0,0,0,0,0,0,0,0,0,0,0,0,0,0,0,0,0,0,0,0,0,0,0,0,0,0,0,0,0,0,0,0,0,0,0,0,0,0,0,0,0,0,0,0,0,0,0,0,0,0,0,0,0,0,0,0,0,0,0,0,0,0,0,0,0,0,0,0,0,0,0,0,0,0],"sum_hessian":[4.8355973E4,3.2031115E4,1.6324855E4,2.0428271E3,2.998829E4,1.2813101E4,3.511755E3,2.0290138E3,1.3813359E1,2.4264266E4,5.724022E3,1.2442684E4,3.704168E2,2.3873787E3,1.1243761E3,1.2197465E3,8.092673E2,8.797907E0,5.0154524E0,9.114015E3,1.5150252E4,4.0492593E3,1.6747626E3,7.982914E3,4.4597695E3,1.18324646E2,2.5209218E2,2.689685E2,2.1184102E3,2.0893056E2,9.154455E2,8.07943E2,1.3242655E0,3.4054327E0,5.3924737E0,3.1800303E0,1.8354223E0,8.766747E3,3.4726797E2,7.837647E3,7.3126045E3,1.0188415E2,3.9473752E3,1.136347E3,5.3841547E2,7.742924E1,7.905485E3,1.1975879E2,4.3400107E3,1.1546436E2,2.860276E0,1.7361598E2,7.84762E1,1.9508977E3,1.6751259E2,1.2818565E2,8.074492E1,3.6358894E1,8.790866E2,8.0052264E2,7.420347E0,1.166965E0,2.2384677E0,4.031901E0,1.3605727E0,1.015078E0,2.1649523E0,5.600178E3,3.1665688E3,7.449769E1,2.727703E2,2.797539E3,5.040108E3,4.3296807E3,2.9829238E3,9.675115E0,9.220903E1,3.9380076E3,9.367615E0,9.519422E2,1.8440485E2,1.10473434E2,4.2794205E2,7.278814E1,4.6970654E1,3.3073296E3,1.032681E3,1.7926466E0,1.0676292E0,1.5575859E2,1.7857386E1,2.2804396E1,5.56718E1,8.452637E1,1.8663713E3,1.4233292E1,1.532793E2,1.1077223E2,1.7413418E1,4.9108284E1,3.1636633E1,1.1439067E1,2.4919828E1,8.6972003E2,9.366573E0],"tree_param":{"num_deleted":"0","num_feature":"31","num_nodes":"105","size_leaf_vector":"0"}},{"base_weights":[9.406113E-3,-3.3418766E-1,8.601541E-1,1.0362709E0,-4.1370827E-1,1.0058521E0,3.1323645E-2,1.046896E0,-2.5241694E-1,-5.664316E-1,2.4119522E-1,1.0754715E0,6.3631344E-1,-2.8711736E-1,9.071631E-1,1.110425E0,9.5282525E-1,-5.0436664E-1,1.7359766E-1,-7.7814484E-1,-3.1654948E-1,4.7799864E-1,-5.1773995E-1,1.08097E0,-6.186149E-1,1.115171E0,3.1744888E-1,-6.082499E-1,2.2201246E-1,1.1716359E0,6.548172E-2,9.63868E-1,2.9303202E-1,2.5794312E-1,-6.736434E-1,5.7864296E-1,-3.5478583E-1,-6.144505E-1,-9.911659E-1,-2.1802535E-2,-6.912026E-1,5.379373E-1,-1.0848541E0,-1.9332196E-1,-1.1521916E0,7.803214E-1,1.1020126E0,-1.2747678E0,1.1074666E0,-8.318502E-1,7.381185E-1,1.2742614E0,-7.2042054E-1,3.734006E-1,-1.0526999E0,1.2982682E0,-4.1936174E-1,1.0594357E0,-5.4277086E-1,9.6804035E-1,-6.832733E-1,-6.5613765E-1,7.9557353E-1,-1.5005817E-1,-8.386267E-1,1.15563884E-1,7.326694E-1,-1.101379E0,-4.6616203E-1,1.1353657E0,-9.975897E-1,-8.8518256E-1,1.8673712E-1,-7.410445E-1,2.900333E0,6.5976745E-1,9.121497E-2,-1.2072736E0,1.1422303E0,2.266351E-2,-1.1553223E0,-1.9156467E0,-1.0497512E0,1.1171095E0,-1.3009822E-1,1.1036195E0,-1.9497501E0,-1.5117522E0,1.0626464E0,-1.3156618E0,4.995895E-1,9.008687E-1,-6.366805E-1,-7.7036786E-1,2.6020386E0,7.107024E-1,-8.700626E-1,1.5471135E0,1.8331757E-1,-1.2224319E0,1.928421E0,9.373728E-1,1.4701902E0,2.3651361E0,-9.3883955E-1,1.2932484E0,-5.912849E-1,1.0247607E0,-1.0723585E0],"categories":[],"categories_nodes":[],"categories_segments":[],"categories_sizes":[],"default_left":[true,true,true,true,true,true,true,true,true,true,true,true,true,true,true,false,true,true,true,true,true,true,true,true,true,false,true,true,true,true,true,true,true,false,true,true,false,true,true,true,true,true,true,true,true,true,true,true,false,true,true,true,true,true,true,true,true,true,true,false,false,false,false,false,false,false,false,false,false,false,false,false,false,false,false,false,false,false,false,false,false,false,false,false,false,false,false,false,false,false,false,false,false,false,false,false,false,false,false,false,false,false,false,false,false,false,false,false,false],"id":5,"left_children":[1,3,5,7,9,11,13,15,17,19,21,23,25,27,29,-1,31,33,35,37,39,41,43,45,47,-1,49,51,53,55,57,59,61,-1,63,65,-1,67,69,71,73,75,77,79,81,83,85,87,-1,89,91,93,95,97,99,101,103,105,107,-1,-1,-1,-1,-1,-1,-1,-1,-1,-1,-1,-1,-1,-1,-1,-1,-1,-1,-1,-1,-1,-1,-1,-1,-1,-1,-1,-1,-1,-1,-1,-1,-1,-1,-1,-1,-1,-1,-1,-1,-1,-1,-1,-1,-1,-1,-1,-1,-1,-1],"loss_changes":[1.1924613E4,3.167197E3,1.4171777E3,2.2088867E1,2.7472007E3,2.5610352E2,4.8990695E2,8.390869E0,1.5730629E0,1.1780151E3,9.337855E2,7.8890625E1,2.4162494E2,2.1076312E2,1.041799E2,0E0,4.4124756E0,1.3290355E0,1.4652809E0,4.19792E2,1.1282092E3,3.715041E2,2.5414041E2,5.209668E1,3.2901577E1,0E0,4.6122223E2,1.6778888E2,9.669046E1,7.233194E1,6.891567E1,5.013977E0,6.2670527E0,0E0,5.309119E-1,1.8014157E-1,0E0,4.9193066E2,7.267432E1,1.0299097E3,8.0743945E2,2.0751697E2,4.1343124E1,1.7017435E2,3.0673523E1,1.6908328E2,4.0501953E1,1.3023254E1,0E0,1.6539943E2,1.5674088E2,1.2363E2,1.6047473E2,9.939361E1,2.9293598E1,1.911499E1,4.1312057E1,1.745831E1,5.9862274E1,0E0,0E0,0E0,0E0,0E0,0E0,0E0,0E0,0E0,0E0,0E0,0E0,0E0,0E0,0E0,0E0,0E0,0E0,0E0,0E0,0E0,0E0,0E0,0E0,0E0,0E0,0E0,0E0,0E0,0E0,0E0,0E0,0E0,0E0,0E0,0E0,0E0,0E0,0E0,0E0,0E0,0E0,0E0,0E0,0E0,0E0,0E0,0E0,0E0,0E0],"parents":[2147483647,0,0,1,1,2,2,3,3,4,4,5,5,6,6,7,7,8,8,9,9,10,10,11,11,12,12,13,13,14,14,16,16,17,17,18,18,19,19,20,20,21,21,22,22,23,23,24,24,26,26,27,27,28,28,29,29,30,30,31,31,32,32,34,34,35,35,37,37,38,38,39,39,40,40,41,41,42,42,43,43,44,44,45,45,46,46,47,47,49,49,50,50,51,51,52,52,53,53,54,54,55,55,56,56,57,57,58,58],"right_children":[2,4,6,8,10,12,14,16,18,20,22,24,26,28,30,-1,32,34,36,38,40,42,44,46,48,-1,50,52,54,56,58,60,62,-1,64,66,-1,68,70,72,74,76,78,80,82,84,86,88,-1,90,92,94,96,98,100,102,104,106,108,-1,-1,-1,-1,-1,-1,-1,-1,-1,-1,-1,-1,-1,-1,-1,-1,-1,-1,-1,-1,-1,-1,-1,-1,-1,-1,-1,-1,-1,-1,-1,-1,-1,-1,-1,-1,-1,-1,-1,-1,-1,-1,-1,-1,-1,-1,-1,-1,-1,-1],"split_conditions":[1.05E1,5E-1,7.174743E-1,5E-1,5E-1,1.5E0,2.5E0,1.5E0,5E-1,1.480651E-1,3.5E0,5.25E1,8.25E1,7.768913E-1,5.5E0,3.331275E-1,8.45E1,8.012821E-2,1.396104E-1,2.9520698E-2,5E-1,1.75E1,5E-1,1.5E0,5E-1,3.345513E-1,1.35E1,2.85E1,5.5E0,1.5E0,4.858379E-2,5E-1,7.95E1,7.738294E-2,1.45E1,1.1403033E-1,-1.0643575E-1,2.5E0,1.05E1,1.5E0,3.9739853E-1,5E-1,2.5E0,5E-1,6.05E1,8.25E1,9.5E0,8.501401E-1,3.3224E-1,9.35E1,5.5E0,1.35E1,1.4110106E-1,1.5E0,6.5E0,3.5E0,1.45E1,8.449793E-1,4.5E0,2.9041213E-1,-2.04982E-1,-1.968413E-1,2.3867206E-1,-4.501745E-2,-2.5158802E-1,3.466917E-2,2.1980083E-1,-3.3041373E-1,-1.3984862E-1,3.4060973E-1,-2.9927692E-1,-2.655548E-1,5.602114E-2,-2.2231336E-1,8.700999E-1,1.9793025E-1,2.7364492E-2,-3.6218208E-1,3.426691E-1,6.799053E-3,-3.4659672E-1,-5.7469404E-1,-3.1492537E-1,3.3513287E-1,-3.9029468E-2,3.3108586E-1,-5.8492506E-1,-4.535257E-1,3.1879392E-1,-3.9469856E-1,1.4987686E-1,2.7026063E-1,-1.9100416E-1,-2.3111036E-1,7.8061163E-1,2.1321073E-1,-2.6101878E-1,4.6413407E-1,5.4995272E-2,-3.667296E-1,5.785263E-1,2.8121185E-1,4.4105706E-1,7.0954084E-1,-2.8165188E-1,3.8797453E-1,-1.7738546E-1,3.0742824E-1,-3.2170755E-1],"split_indices":[26,5,18,3,3,19,2,2,10,23,2,28,25,21,29,0,17,23,23,22,10,30,9,2,3,0,26,20,29,8,22,19,20,0,20,23,0,28,17,12,22,10,10,27,25,25,14,21,0,20,29,26,23,10,5,5,26,21,10,0,0,0,0,0,0,0,0,0,0,0,0,0,0,0,0,0,0,0,0,0,0,0,0,0,0,0,0,0,0,0,0,0,0,0,0,0,0,0,0,0,0,0,0,0,0,0,0,0,0],"split_type":[0,0,0,0,0,0,0,0,0,0,0,0,0,0,0,0,0,0,0,0,0,0,0,0,0,0,0,0,0,0,0,0,0,0,0,0,0,0,0,0,0,0,0,0,0,0,0,0,0,0,0,0,0,0,0,0,0,0,0,0,0,0,0,0,0,0,0,0,0,0,0,0,0,0,0,0,0,0,0,0,0,0,0,0,0,0,0,0,0,0,0,0,0,0,0,0,0,0,0,0,0,0,0,0,0,0,0,0,0],"sum_hessian":[4.0792184E4,2.9057332E4,1.1734852E4,1.5929196E3,2.7464412E4,9.980237E3,1.7546145E3,1.5800795E3,1.284E1,2.2270965E4,5.193448E3,8.396472E3,1.5837656E3,1.2872599E3,4.6735464E2,9.366943E2,6.4338525E2,7.9527426E0,4.8872576E0,1.205512E4,1.0215844E4,3.9586406E3,1.2348074E3,8.369668E3,2.6803776E1,6.3206274E2,9.517029E2,7.892485E2,4.980114E2,3.5531552E2,1.1203912E2,6.32341E2,1.1044196E1,1.3498995E0,6.602843E0,2.7126727E0,2.1745849E0,6.818998E3,5.236122E3,5.718246E3,4.497598E3,3.8130579E3,1.4558287E2,8.178936E2,4.1691376E2,5.49971E2,7.8196973E3,1.9610504E1,7.1932726E0,2.547448E2,6.969581E2,4.3800694E1,7.454478E2,4.4577686E2,5.2234543E1,3.2929028E2,2.6025225E1,4.2252296E1,6.978683E1,6.3115454E2,1.1864699E0,3.717386E0,7.3268104E0,2.0395932E0,4.5632496E0,1.113932E0,1.5987408E0,1.5903633E3,5.228635E3,1.5240431E1,5.2208813E3,1.1118412E3,4.606405E3,4.4368193E3,6.0778793E1,2.9956162E3,8.1744165E2,1.3843141E2,7.151455E0,6.68729E2,1.4916461E2,4.7229294E1,3.6968445E2,4.012946E2,1.4867644E2,7.81622E3,3.4770565E0,1.8125992E1,1.4845111E0,1.8685738E2,6.788742E1,6.234931E2,7.3465034E1,1.7410408E1,2.6390284E1,7.021238E1,6.752354E2,6.1136406E1,3.8464047E2,4.9978905E1,2.2556381E0,1.08332664E2,2.2095763E2,3.5332792E0,2.2491945E1,3.719977E1,5.0525255E0,1.7387218E1,5.2399612E1],"tree_param":{"num_deleted":"0","num_feature":"31","num_nodes":"109","size_leaf_vector":"0"}},{"base_weights":[1.0365196E-2,-3.1376663E-1,7.1577907E-1,9.825578E-1,-3.8399634E-1,9.54029E-1,6.462855E-2,9.9451065E-1,-1.9506618E-1,-8.707436E-1,-2.0961025E-1,1.1046772E0,7.1784043E-1,-9.042935E-2,1.0450639E0,1.0778296E0,8.7686455E-1,-7.02527E-1,-9.0222405E-3,-7.423532E-1,-1.042809E0,4.4126797E-2,-6.300212E-1,1.6601061E0,1.085866E0,2.2396462E-1,1.0843925E0,1.898592E-1,-6.8542457E-1,-3.6261657E-1,1.0967486E0,4.7230116E-1,1.0792291E0,8.935516E-1,2.4507262E-1,-8.3420634E-1,-2.2682148E-1,-1.7299521E-1,7.2922033E-1,-1.0504086E0,-4.9715403E-1,-1.0462509E0,3.321841E0,-1.0812719E0,1.3796376E-1,-8.849634E-1,-4.2767173E-1,1.2487899E0,1.7527112E0,7.5157905E-1,-4.8490182E-1,-1.0263846E0,1.0882617E0,-5.5994127E-2,1.0857464E0,1.3834685E-3,-8.4645194E-1,8.3309495E-1,-1.2158513E0,5.9291918E-2,6.2717223E-1,3.526619E-1,9.118211E-1,8.197069E-1,-6.357699E-1,2.9725116E-1,-4.2962843E-1,-1.0914242E0,-9.884422E-1,7.032867E-1,-6.3757396E-1,-8.357064E-1,-1.0601672E0,9.8612964E-1,-1.154649E0,7.9587E-1,-7.263063E-2,-9.569035E-1,-1.0059496E-1,-1.9420207E-1,-1.0620342E0,1.981225E0,1.4552501E0,9.460628E-1,-3.2565486E-1,-1.130763E0,8.677979E-1,1.0904366E0,-1.3979463E-1,-5.617979E-1,3.7498572E-1,-5.978289E-2,1.199155E0,-4.9795434E-1,2.4239187E0,-8.874711E-1,1.5046723E0,1.3196372E0,-5.247377E-1],"categories":[],"categories_nodes":[],"categories_segments":[],"categories_sizes":[],"default_left":[true,true,true,true,true,true,true,true,true,true,true,true,true,true,true,true,true,true,true,true,true,true,true,true,false,true,true,true,true,true,false,true,false,true,true,false,false,true,false,true,true,true,false,true,true,true,true,false,true,true,true,false,true,true,true,true,true,true,false,false,false,false,false,false,false,false,false,false,false,false,false,false,false,false,false,false,false,false,false,false,false,false,false,false,false,false,false,false,false,false,false,false,false,false,false,false,false,false,false],"id":6,"left_children":[1,3,5,7,9,11,13,15,17,19,21,23,25,27,29,31,33,35,37,39,41,43,45,47,-1,49,51,53,55,57,-1,59,-1,61,63,-1,-1,65,-1,67,69,71,-1,73,75,77,79,-1,81,83,85,-1,87,89,91,93,95,97,-1,-1,-1,-1,-1,-1,-1,-1,-1,-1,-1,-1,-1,-1,-1,-1,-1,-1,-1,-1,-1,-1,-1,-1,-1,-1,-1,-1,-1,-1,-1,-1,-1,-1,-1,-1,-1,-1,-1,-1,-1],"loss_changes":[8.0229053E3,2.189143E3,1.7137227E3,1.7589355E1,1.935707E3,2.8697607E2,4.501309E2,1.1048584E1,1.2449327E0,1.3211572E2,1.7913418E3,4.9771973E1,5.704535E2,4.265568E2,2.9814545E1,9.350586E-2,5.18573E0,3.2687068E-2,1.4227504E0,2.5995105E2,4.20542E1,1.1061403E3,3.256765E2,3.898407E0,0E0,5.0312512E2,1.5893066E1,3.8307526E2,9.0581116E1,1.638873E1,0E0,1.8155205E-1,0E0,4.61026E0,7.8957925E0,0E0,0E0,1.2829458E0,0E0,2.8032227E0,3.2442828E2,6.6345215E0,0E0,1.2343237E2,1.3395516E3,1.5766553E2,5.2195166E2,0E0,5.8150635E0,1.6184494E2,5.0264197E2,0E0,4.977051E0,2.9786572E2,4.8723938E1,1.9058441E2,6.532123E1,5.2306685E0,0E0,0E0,0E0,0E0,0E0,0E0,0E0,0E0,0E0,0E0,0E0,0E0,0E0,0E0,0E0,0E0,0E0,0E0,0E0,0E0,0E0,0E0,0E0,0E0,0E0,0E0,0E0,0E0,0E0,0E0,0E0,0E0,0E0,0E0,0E0,0E0,0E0,0E0,0E0,0E0,0E0],"parents":[2147483647,0,0,1,1,2,2,3,3,4,4,5,5,6,6,7,7,8,8,9,9,10,10,11,11,12,12,13,13,14,14,15,15,16,16,17,17,18,18,19,19,20,20,21,21,22,22,23,23,25,25,26,26,27,27,28,28,29,29,31,31,33,33,34,34,37,37,39,39,40,40,41,41,43,43,44,44,45,45,46,46,48,48,49,49,50,50,52,52,53,53,54,54,55,55,56,56,57,57],"right_children":[2,4,6,8,10,12,14,16,18,20,22,24,26,28,30,32,34,36,38,40,42,44,46,48,-1,50,52,54,56,58,-1,60,-1,62,64,-1,-1,66,-1,68,70,72,-1,74,76,78,80,-1,82,84,86,-1,88,90,92,94,96,98,-1,-1,-1,-1,-1,-1,-1,-1,-1,-1,-1,-1,-1,-1,-1,-1,-1,-1,-1,-1,-1,-1,-1,-1,-1,-1,-1,-1,-1,-1,-1,-1,-1,-1,-1,-1,-1,-1,-1,-1,-1],"split_conditions":[2E0,5E-1,5.65E1,5E-1,1.5E0,8.25E1,5E-1,1.5E0,8.038461E-1,1.5E0,4.75E1,8.5E0,5E-1,8.5E0,1.05E1,5E-1,1.8469785E-1,3.5E0,1.5E0,1.5E0,3.288288E-1,5E-1,2.5E0,1E0,3.257598E-1,1.2472223E-1,1.5E0,1.75E1,2.5E0,5E0,3.2902458E-1,1.8E1,3.2376873E-1,6.0263157E-1,2.2E1,-2.502619E-1,-6.804645E-2,1.85E1,2.1876611E-1,5E-1,2.35E1,2.35E1,9.9655235E-1,6.711712E-1,2.85E1,5E-1,5E-1,3.7463698E-1,7.5E0,1.5E0,1.65E1,-3.079154E-1,6.5E0,1.5E0,1.5E0,4.5E0,2.5E0,5E-1,-3.647554E-1,1.7787576E-2,1.8815167E-1,1.0579858E-1,2.7354634E-1,2.4591209E-1,-1.9073097E-1,8.917535E-2,-1.2888853E-1,-3.2742727E-1,-2.9653266E-1,2.1098602E-1,-1.912722E-1,-2.5071195E-1,-3.1805018E-1,2.958389E-1,-3.4639472E-1,2.3876101E-1,-2.178919E-2,-2.8707108E-1,-3.017849E-2,-5.8260623E-2,-3.1861028E-1,5.943675E-1,4.3657506E-1,2.8381884E-1,-9.769646E-2,-3.3922893E-1,2.6033938E-1,3.2713097E-1,-4.193839E-2,-1.6853938E-1,1.1249572E-1,-1.7934868E-2,3.5974652E-1,-1.493863E-1,7.2717565E-1,-2.6624134E-1,4.514017E-1,3.9589116E-1,-1.5742132E-1],"split_indices":[26,5,17,3,2,25,3,2,21,30,25,26,3,10,26,2,23,30,10,5,23,28,2,24,0,18,2,28,29,29,0,17,0,21,17,0,0,17,0,28,17,25,0,18,25,3,27,0,26,8,26,0,5,2,5,5,14,8,0,0,0,0,0,0,0,0,0,0,0,0,0,0,0,0,0,0,0,0,0,0,0,0,0,0,0,0,0,0,0,0,0,0,0,0,0,0,0,0,0],"split_type":[0,0,0,0,0,0,0,0,0,0,0,0,0,0,0,0,0,0,0,0,0,0,0,0,0,0,0,0,0,0,0,0,0,0,0,0,0,0,0,0,0,0,0,0,0,0,0,0,0,0,0,0,0,0,0,0,0,0,0,0,0,0,0,0,0,0,0,0,0,0,0,0,0,0,0,0,0,0,0,0,0,0,0,0,0,0,0,0,0,0,0,0,0,0,0,0,0,0,0],"sum_hessian":[3.5086613E4,2.4040676E4,1.1045937E4,1.2348267E3,2.280585E4,8.086643E3,2.9592935E3,1.222573E3,1.2253584E1,6.0144097E3,1.679144E4,4.935168E3,3.1514749E3,2.5559692E3,4.0332413E2,7.109232E2,5.1164984E2,2.5424802E0,9.711103E0,3.4473833E3,2.5670264E3,1.0472005E4,6.3194346E3,1.5881053E2,4.7763574E3,1.3432505E3,1.8082244E3,1.7379446E3,8.180248E2,1.4071034E1,3.892531E2,2.4197521E0,7.085035E2,4.9808014E2,1.3569727E1,1.4010409E0,1.1414392E0,8.572672E0,1.1384321E0,1.5264047E3,1.9209786E3,2.5657632E3,1.2630411E0,8.0515497E2,9.666851E3,2.794828E3,3.5246067E3,3.184638E1,1.2696416E2,7.7004224E2,5.732083E2,2.8250053E0,1.8053993E3,1.3644451E3,3.734995E2,1.5555382E2,6.6247095E2,5.869376E0,8.201658E0,1.0370367E0,1.3827156E0,1.6937237E1,4.8114288E2,8.254291E0,5.315437E0,2.9708009E0,5.601871E0,9.084722E2,6.1793243E2,2.0075229E2,1.7202263E3,1.6285872E2,2.4029045E3,2.7171036E1,7.779839E2,2.3433477E3,7.3235024E3,2.5598274E3,2.3500032E2,2.5773496E3,9.4725714E2,6.860238E1,5.8361774E1,6.523828E2,1.1765938E2,3.8807956E2,1.8512874E2,1.8023196E3,3.0797288E0,6.2759155E2,7.368535E2,3.368844E1,3.398111E2,1.2962889E2,2.592492E1,6.5172314E2,1.0747824E1,4.341756E0,1.5276201E0],"tree_param":{"num_deleted":"0","num_feature":"31","num_nodes":"99","size_leaf_vector":"0"}},{"base_weights":[9.778205E-3,-2.2732262E-1,7.364533E-1,9.317738E-1,-2.777588E-1,9.3648165E-1,1.4968093E-1,1.055155E0,7.723572E-1,-4.0415895E-1,2.0742555E-1,1.0209767E0,4.9744174E-1,-1.8530589E-2,1.0685627E0,1.0569742E0,3.8636592E-1,8.000539E-1,-2.4400683E-1,-5.1737434E-1,9.06712E-3,2.876194E-1,-1.0789976E0,7.37665E-1,1.0410585E0,6.687756E-1,-1.1127104E0,9.144977E-1,-1.7283468E-1,3.574899E-2,5.4173046E-1,5.399621E-1,8.543337E-1,-4.8377898E-1,1.9976443E-1,-5.8968604E-1,1.752508E-1,3.3959067E-1,-6.498287E-1,4.3149915E-1,-1.4989829E-1,-1.9444984E0,-9.9206585E-1,1.0582092E0,-2.5561622E-1,1.0436476E0,-1.1386251E0,8.632399E-1,-3.6419818E-1,-1.1602764E-1,-2.5343387E0,-3.6861798E-1,1.019179E0,4.1635972E-1,-5.065891E-1,4.803127E-2,8.053155E-1,8.681452E-1,1.2443497E-1,-8.147388E-1,-2.5446606E-1,7.203532E-1,-4.255006E-1,-2.4754184E-1,-7.597923E-1,1.2543298E0,-3.6248994E-1,-2.3850986E-1,5.3354025E-1,-7.272674E-1,4.878123E-1,1.3052183E-1,6.3862973E-1,-5.371627E-1,3.8586324E-1,-1.5350677E0,-2.9387193E0,-1.0178612E0,1.3202217E0,-8.361159E-1,6.217159E-1,1.0454407E0,1.5728419E-1,-3.075462E0,1.0502687E0,9.200438E-1,-9.271273E-1,-1.0612556E0,1.0353069E0,-7.0539564E-1,1.8936031E0,-3.94779E0,-9.460387E-1,8.8707876E-1,-1.0937058E0,7.020661E-1,1.262777E0,-1.1432278E0,6.425566E-1,1.1161683E0,-6.071909E-1],"categories":[],"categories_nodes":[],"categories_segments":[],"categories_sizes":[],"default_left":[true,true,true,true,true,true,true,true,true,true,true,true,true,true,false,false,true,true,true,true,true,true,true,true,true,true,true,true,true,false,false,true,true,true,true,true,true,true,true,true,true,true,true,false,true,true,true,true,true,true,true,true,true,true,true,false,false,false,false,false,false,false,false,false,false,false,false,false,false,false,false,false,false,false,false,false,false,false,false,false,false,false,false,false,false,false,false,false,false,false,false,false,false,false,false,false,false,false,false,false,false],"id":7,"left_children":[1,3,5,7,9,11,13,15,17,19,21,23,25,27,-1,-1,29,31,33,35,37,39,41,43,45,47,49,51,53,-1,-1,55,57,59,61,63,65,67,69,71,73,75,77,-1,79,81,83,85,87,89,91,93,95,97,99,-1,-1,-1,-1,-1,-1,-1,-1,-1,-1,-1,-1,-1,-1,-1,-1,-1,-1,-1,-1,-1,-1,-1,-1,-1,-1,-1,-1,-1,-1,-1,-1,-1,-1,-1,-1,-1,-1,-1,-1,-1,-1,-1,-1,-1,-1],"loss_changes":[5.262248E3,1.3465051E3,8.817527E2,1.8076782E1,1.3535089E3,2.0735645E2,2.9545853E2,2.4707031E-1,1.2096436E1,8.19095E2,4.709178E2,2.5961426E1,2.5076476E2,2.3290353E2,0E0,0E0,1.4609405E-1,5.3523254E0,1.3715463E0,6.884126E2,8.204333E2,2.7042694E2,1.8227448E1,1.0037216E2,2.5932129E1,1.6498279E2,1.2373859E2,3.1211838E1,2.731655E2,0E0,0E0,9.59734E0,3.3092346E0,4.0521586E-1,1.9049673E0,7.240591E2,7.547536E2,2.8141418E2,1.1122406E2,2.0142169E2,2.2088554E2,5.018387E0,1.5986237E1,0E0,3.99959E1,6.796875E0,2.731113E1,7.104346E1,1.2848125E2,6.3526413E1,7.7151184E1,1.7405659E1,1.5530518E1,1.7800046E2,1.4541031E2,0E0,0E0,0E0,0E0,0E0,0E0,0E0,0E0,0E0,0E0,0E0,0E0,0E0,0E0,0E0,0E0,0E0,0E0,0E0,0E0,0E0,0E0,0E0,0E0,0E0,0E0,0E0,0E0,0E0,0E0,0E0,0E0,0E0,0E0,0E0,0E0,0E0,0E0,0E0,0E0,0E0,0E0,0E0,0E0,0E0,0E0],"parents":[2147483647,0,0,1,1,2,2,3,3,4,4,5,5,6,6,7,7,8,8,9,9,10,10,11,11,12,12,13,13,16,16,17,17,18,18,19,19,20,20,21,21,22,22,23,23,24,24,25,25,26,26,27,27,28,28,31,31,32,32,33,33,34,34,35,35,36,36,37,37,38,38,39,39,40,40,41,41,42,42,44,44,45,45,46,46,47,47,48,48,49,49,50,50,51,51,52,52,53,53,54,54],"right_children":[2,4,6,8,10,12,14,16,18,20,22,24,26,28,-1,-1,30,32,34,36,38,40,42,44,46,48,50,52,54,-1,-1,56,58,60,62,64,66,68,70,72,74,76,78,-1,80,82,84,86,88,90,92,94,96,98,100,-1,-1,-1,-1,-1,-1,-1,-1,-1,-1,-1,-1,-1,-1,-1,-1,-1,-1,-1,-1,-1,-1,-1,-1,-1,-1,-1,-1,-1,-1,-1,-1,-1,-1,-1,-1,-1,-1,-1,-1,-1,-1,-1,-1,-1,-1],"split_conditions":[1.05E1,5E-1,5.65E1,1.5E0,5E-1,1.5E0,5E-1,3.5E0,5E-1,2.5E0,5.5E0,1.5E0,2.5E0,1.3135E-1,3.2056883E-1,3.1709227E-1,4.409722E-1,7.831962E-1,2.55E1,2E0,6.05E1,3.5E0,5.65E1,8.25E1,9.5E0,1.5E0,5E-1,5.75E1,5.5E0,1.0724697E-2,1.6251914E-1,2.55E1,9.3908477E-1,8.1652665E-1,8.867521E-1,3.05E1,8.25E1,4.5E0,3E0,6.5E0,3.6254108E-2,1.2E1,5E-1,3.1746277E-1,2.5E0,8.794142E-1,2.5E0,1.45E1,1.55E1,2.5E0,1.65E1,4.5E0,4.5E0,1.5E0,1E0,1.4409382E-2,2.4159466E-1,2.6044357E-1,3.7330493E-2,-2.4442165E-1,-7.633982E-2,2.1610597E-1,-1.2765019E-1,-7.426256E-2,-2.2793771E-1,3.7629896E-1,-1.0874698E-1,-7.155296E-2,1.6006207E-1,-2.1818022E-1,1.463437E-1,3.9156552E-2,1.9158892E-1,-1.6114882E-1,1.1575898E-1,-4.6052033E-1,-8.816158E-1,-3.0535838E-1,3.9606652E-1,-2.508348E-1,1.8651478E-1,3.1363222E-1,4.7185257E-2,-9.2263865E-1,3.150806E-1,2.7601317E-1,-2.781382E-1,-3.183767E-1,3.105921E-1,-2.116187E-1,5.6808096E-1,-1.184337E0,-2.8381163E-1,2.6612365E-1,-3.2811174E-1,2.1061985E-1,3.7883312E-1,-3.4296834E-1,1.92767E-1,3.348505E-1,-1.8215728E-1],"split_indices":[26,5,17,2,3,19,3,19,3,2,2,2,10,23,0,0,23,21,17,26,25,12,25,25,14,16,27,17,30,0,0,17,21,21,21,25,25,28,26,28,22,28,1,0,11,21,2,8,26,14,26,2,19,5,24,0,0,0,0,0,0,0,0,0,0,0,0,0,0,0,0,0,0,0,0,0,0,0,0,0,0,0,0,0,0,0,0,0,0,0,0,0,0,0,0,0,0,0,0,0,0],"split_type":[0,0,0,0,0,0,0,0,0,0,0,0,0,0,0,0,0,0,0,0,0,0,0,0,0,0,0,0,0,0,0,0,0,0,0,0,0,0,0,0,0,0,0,0,0,0,0,0,0,0,0,0,0,0,0,0,0,0,0,0,0,0,0,0,0,0,0,0,0,0,0,0,0,0,0,0,0,0,0,0,0,0,0,0,0,0,0,0,0,0,0,0,0,0,0,0,0,0,0,0,0],"sum_hessian":[3.054006E4,2.3027346E4,7.5127153E3,9.5948645E2,2.2067857E4,5.602313E3,1.9104021E3,5.377066E2,4.2177988E2,1.7507084E4,4.5607754E3,4.6970264E3,9.052868E2,1.615624E3,2.9477808E2,5.356691E2,2.0374508E0,4.1079813E2,1.0981733E1,1.3741849E4,3.7652341E3,4.2938774E3,2.6689798E2,3.1339902E2,4.3836274E3,8.187495E2,8.653726E1,2.285752E2,1.3870488E3,1.0033197E0,1.0341309E0,7.281915E1,3.3797897E2,7.07105E0,3.9106834E0,1.2442927E4,1.2989221E3,2.50775E3,1.2574843E3,3.231272E3,1.0626052E3,2.2410358E1,2.4448763E2,2.3688719E2,7.651182E1,4.3789473E3,4.680126E0,6.891725E2,1.2957706E2,5.1507637E1,3.502963E1,1.7051214E1,2.1152397E2,5.0149155E2,8.855572E2,2.592975E1,4.68894E1,3.3151645E2,6.462527E0,1.8492017E0,5.2218485E0,2.050982E0,1.8597014E0,4.1328184E3,8.310108E3,4.315674E2,8.673547E2,6.2992346E2,1.8778264E3,1.1776808E3,7.980353E1,1.3178951E3,1.913377E3,6.1677747E2,4.4582776E2,1.7675423E1,4.7349353E0,2.423439E2,2.1437318E0,4.607355E1,3.0438265E1,4.3699277E3,9.019494E0,2.2681391E0,2.411987E0,6.684503E2,2.0722153E1,8.665708E1,4.2919968E1,4.032921E1,1.1178427E1,1.7748995E1,1.7280634E1,6.1600018E0,1.0891212E1,9.358205E1,1.17941925E2,6.3008057E1,4.384835E2,5.1105488E1,8.344517E2],"tree_param":{"num_deleted":"0","num_feature":"31","num_nodes":"101","size_leaf_vector":"0"}},{"base_weights":[1.1113253E-2,-1.763244E-1,7.0241433E-1,-2.7720584E-2,-4.7756198E-1,8.794703E-1,4.0488217E-2,7.588368E-2,-4.4016603E-1,8.663666E-1,-5.1147115E-1,9.8210555E-1,4.463361E-1,-1.8310653E-1,7.064593E-1,1.7325136E-1,-6.733575E-1,-6.270118E-1,5.976753E-1,8.8381183E-1,-7.926947E-1,-7.008406E-1,-2.6121816E-1,6.005302E-1,1.0151856E0,1.0446584E0,1.5773219E-1,1.1710098E0,-2.686193E-1,9.701968E-1,-4.7318257E-2,-3.5291567E-1,3.180021E-1,-7.7998936E-1,9.3493783E-1,8.5735315E-1,-6.8662167E-1,6.995363E-1,-3.3481717E-1,1.0305989E0,7.322408E-1,-7.76442E-1,-2.4197057E-1,-3.1066325E-1,1.6973376E0,7.984978E-1,-6.8989366E-1,1.018143E0,-7.4078095E-1,9.8232436E-1,-3.240465E-1,-3.0858558E-1,2.0992265E0,1.1207815E0,-3.8390145E-1,6.591778E-1,-4.8801854E-1,8.8268334E-1,-8.0265373E-1,-1.0226866E-1,5.1982594E-1,-8.062815E-1,3.2090757E0,1.9069848E0,-8.491034E-1,-1.0707052E0,1.0938307E0,-8.064646E-1,-1.9981907E-1,1.0388532E0,4.3145365E-1,1.5419412E-1,-1.0698255E0,5.1352304E-1,9.830432E-1,-8.1288224E-1,1.0320442E-1,3.9858574E-1,-6.1170495E-1,7.395787E-1,-3.6193833E-1,-9.521953E-1,1.8358104E0,1.0960127E0,-2.810689E-2,1.0713605E0,-1.2011616E0,1.031448E0,6.660723E-1,-1.8041339E0,9.32368E-1,5.9123904E-1,1.0682002E0,-7.1805876E-1,1.0209867E0,7.135749E-2,-5.3909016E-1,2.7226214E0,-8.023092E-1,6.316644E-1,1.3395462E0,1.7897984E0,-8.3860797E-1,1.2506377E0,-3.45838E-1,-7.545866E-1,9.372905E-1],"categories":[],"categories_nodes":[],"categories_segments":[],"categories_sizes":[],"default_left":[true,true,true,true,true,true,true,true,true,true,true,true,true,true,true,true,true,true,true,true,false,true,true,true,true,false,true,false,true,true,true,true,true,true,true,true,true,true,true,false,true,true,true,true,true,true,true,true,true,true,true,true,true,true,true,true,true,false,false,false,false,false,false,false,false,false,false,false,false,false,false,false,false,false,false,false,false,false,false,false,false,false,false,false,false,false,false,false,false,false,false,false,false,false,false,false,false,false,false,false,false,false,false,false,false,false,false],"id":8,"left_children":[1,3,5,7,9,11,13,15,17,19,21,23,25,27,29,31,33,35,37,39,-1,41,43,45,47,-1,49,-1,51,53,55,57,59,61,63,65,67,69,71,-1,73,75,77,79,81,83,85,87,89,91,93,95,97,99,101,103,105,-1,-1,-1,-1,-1,-1,-1,-1,-1,-1,-1,-1,-1,-1,-1,-1,-1,-1,-1,-1,-1,-1,-1,-1,-1,-1,-1,-1,-1,-1,-1,-1,-1,-1,-1,-1,-1,-1,-1,-1,-1,-1,-1,-1,-1,-1,-1,-1,-1,-1],"loss_changes":[3.485947E3,9.474106E2,6.724971E2,6.0569714E2,3.1905737E2,2.0082495E2,1.8061554E2,8.265952E2,5.5221094E2,5.69133E0,3.2302283E2,4.5579346E1,1.4991385E2,1.0547954E2,6.065239E1,7.637947E2,2.2421411E2,2.1401538E2,4.1521774E1,3.052414E0,0E0,1.3447339E2,2.8517966E2,7.5751976E1,1.8233887E1,0E0,2.3371112E2,0E0,8.156673E1,4.649057E1,2.5221561E1,1.2031174E3,6.670956E2,1.3082227E2,1.4292496E2,4.3833748E1,1.3515808E2,3.522769E1,1.5793699E1,0E0,4.302643E0,1.06895386E2,1.3062746E2,1.5470471E2,2.835997E1,6.291011E1,3.7026955E1,1.5055176E1,1.2780878E1,6.653305E0,1.9765587E2,7.375788E1,2.8088531E1,2.093274E1,2.4581226E1,1.8947365E1,1.9638142E1,0E0,0E0,0E0,0E0,0E0,0E0,0E0,0E0,0E0,0E0,0E0,0E0,0E0,0E0,0E0,0E0,0E0,0E0,0E0,0E0,0E0,0E0,0E0,0E0,0E0,0E0,0E0,0E0,0E0,0E0,0E0,0E0,0E0,0E0,0E0,0E0,0E0,0E0,0E0,0E0,0E0,0E0,0E0,0E0,0E0,0E0,0E0,0E0,0E0,0E0],"parents":[2147483647,0,0,1,1,2,2,3,3,4,4,5,5,6,6,7,7,8,8,9,9,10,10,11,11,12,12,13,13,14,14,15,15,16,16,17,17,18,18,19,19,21,21,22,22,23,23,24,24,26,26,28,28,29,29,30,30,31,31,32,32,33,33,34,34,35,35,36,36,37,37,38,38,40,40,41,41,42,42,43,43,44,44,45,45,46,46,47,47,48,48,49,49,50,50,51,51,52,52,53,53,54,54,55,55,56,56],"right_children":[2,4,6,8,10,12,14,16,18,20,22,24,26,28,30,32,34,36,38,40,-1,42,44,46,48,-1,50,-1,52,54,56,58,60,62,64,66,68,70,72,-1,74,76,78,80,82,84,86,88,90,92,94,96,98,100,102,104,106,-1,-1,-1,-1,-1,-1,-1,-1,-1,-1,-1,-1,-1,-1,-1,-1,-1,-1,-1,-1,-1,-1,-1,-1,-1,-1,-1,-1,-1,-1,-1,-1,-1,-1,-1,-1,-1,-1,-1,-1,-1,-1,-1,-1,-1,-1,-1,-1,-1,-1],"split_conditions":[1.15E1,5E-1,7.107936E-1,5E-1,5E-1,1.5E0,2.5E0,5E-1,5E-1,3.45E1,1.6193831E-1,1.5E0,8.25E1,8.25E1,5.5E0,2.5E0,5E-1,1.05E1,5E-1,1.5E0,-2.3780842E-1,5E-1,3.94103E-1,5E-1,9.5E0,3.1339753E-1,1.2773956E-1,3.5130295E-1,3.2796103E-1,1.5E0,4.858379E-2,5E-1,1.2880185E-1,5E-1,5E-1,8.5E0,2.5E0,8.0385953E-1,4.8076925E-3,3.0917966E-1,1.5E0,6.5E0,2.5E0,1.15E1,1.45E1,5.5E0,6.75E1,7.5E0,2.5E0,1.45E1,5E-1,5.5E0,2.5E0,3.5E0,1.45E1,8.256347E-1,5E-1,2.6480502E-1,-2.4079613E-1,-3.0680599E-2,1.5594779E-1,-2.4188446E-1,9.627227E-1,5.7209545E-1,-2.5473103E-1,-3.2121158E-1,3.2814923E-1,-2.419394E-1,-5.9945725E-2,3.1165597E-1,1.294361E-1,4.6258237E-2,-3.2094768E-1,1.5405692E-1,2.9491296E-1,-2.4386469E-1,3.0961327E-2,1.19575724E-1,-1.835115E-1,2.2187363E-1,-1.08581506E-1,-2.856586E-1,5.5074316E-1,3.2880384E-1,-8.432068E-3,3.2140815E-1,-3.603485E-1,3.094344E-1,1.998217E-1,-5.412402E-1,2.797104E-1,1.7737171E-1,3.2046008E-1,-2.1541764E-1,3.0629602E-1,2.1407247E-2,-1.6172706E-1,8.1678647E-1,-2.4069278E-1,1.8949933E-1,4.0186387E-1,5.3693956E-1,-2.515824E-1,3.751913E-1,-1.03751406E-1,-2.2637598E-1,2.8118715E-1],"split_indices":[26,10,18,16,5,19,2,11,3,30,23,2,25,25,29,28,15,17,27,2,0,3,22,16,14,0,23,0,23,8,22,5,23,0,27,28,2,21,22,0,30,26,5,17,20,30,20,12,2,26,3,30,5,5,26,21,3,0,0,0,0,0,0,0,0,0,0,0,0,0,0,0,0,0,0,0,0,0,0,0,0,0,0,0,0,0,0,0,0,0,0,0,0,0,0,0,0,0,0,0,0,0,0,0,0,0,0],"split_type":[0,0,0,0,0,0,0,0,0,0,0,0,0,0,0,0,0,0,0,0,0,0,0,0,0,0,0,0,0,0,0,0,0,0,0,0,0,0,0,0,0,0,0,0,0,0,0,0,0,0,0,0,0,0,0,0,0,0,0,0,0,0,0,0,0,0,0,0,0,0,0,0,0,0,0,0,0,0,0,0,0,0,0,0,0,0,0,0,0,0,0,0,0,0,0,0,0,0,0,0,0,0,0,0,0,0,0],"sum_hessian":[2.6900797E4,2.1163361E4,5.7374355E3,1.4172837E4,6.990524E3,4.5263677E3,1.2110681E3,1.1328092E4,2.8447449E3,1.7143562E2,6.8190884E3,3.6582444E3,8.681233E2,9.0720575E2,3.038624E2,1.0025939E4,1.3021528E3,2.4110686E3,4.3367624E2,1.7011414E2,1.3214875E0,3.8807092E3,2.9383794E3,2.933729E2,3.3648713E3,2.81633E2,5.864903E2,5.313325E1,8.540725E2,2.2488928E2,7.897312E1,2.1627896E3,7.8631494E3,1.2216697E3,8.0483116E1,9.257004E1,2.3184988E3,3.911939E2,4.2482327E1,8.347467E1,8.6639465E1,3.3311855E3,5.495236E2,2.8668452E3,7.15341E1,2.5468254E2,3.8690353E1,3.3596333E3,5.2382455E0,2.1590956E2,3.705807E2,8.4075134E2,1.3321158E1,2.0253802E2,2.2351265E1,3.0147413E1,4.882571E1,5.76891E2,1.5858984E3,2.5511726E3,5.311977E3,1.214463E3,7.206707E0,5.2052856E1,2.8430264E1,9.727958E0,8.284208E1,1.8599518E3,4.5854684E2,1.7138892E2,2.19805E2,2.5984615E1,1.6497711E1,4.790787E1,3.8731594E1,3.19875E3,1.324355E2,2.0107967E2,3.4844394E2,1.328254E2,2.7340198E3,3.2610443E0,6.8273056E1,1.8703737E2,6.764518E1,8.458023E0,3.0232328E1,3.2354343E3,1.24198746E2,3.154896E0,2.0833492E0,4.0293728E1,1.7561584E2,2.8697946E2,8.360124E1,3.1772778E2,5.2302356E2,1.10160265E1,2.3051317E0,6.3793983E1,1.3874403E2,3.3587556E0,1.899251E1,1.8824594E1,1.132282E1,4.1529285E1,7.296424E0],"tree_param":{"num_deleted":"0","num_feature":"31","num_nodes":"107","size_leaf_vector":"0"}},{"base_weights":[1.00757005E-2,-1.23657934E-1,7.37573E-1,-4.4415084E-1,-1.7276369E-2,9.027292E-1,1.1888947E-1,1.026436E0,-5.414371E-1,1.7064857E-1,-2.131598E-1,4.10456E-1,9.4607186E-1,-1.7843854E-2,1.0398374E0,2.7577612E-1,1.0294709E0,-5.937869E-1,1.0210943E0,2.4628164E-1,-4.5645416E-1,-3.0795592E-1,2.7634117E-1,1.0283053E0,-1.2894185E-1,9.685846E-1,2.0713268E-1,-1.5005077E-1,1.1966743E0,-9.743735E-1,-4.67308E-1,1.0567392E0,-8.799503E-1,-2.008055E-1,3.7851718E-1,-6.024691E-1,7.4486876E-1,-1.8270895E-1,-7.490215E-1,1.1016973E0,-3.7556138E-2,-9.7225994E-1,4.3253613E-1,9.8630106E-1,1.7578664E-1,8.8466007E-1,-1.458995E0,3.7753364E-1,-4.86441E-1,1.6469826E0,6.0000974E-1,-9.819347E-1,2.809609E0,3.95473E-1,-5.803538E-1,-3.887444E-1,3.356916E-1,4.2392164E-1,-6.553423E-1,-2.806746E-1,-8.32679E-1,1.0091693E0,5.01943E-1,-4.8392588E-1,1.9055787E-2,-6.1546624E-1,-1.0108267E0,1.4291078E0,1.0691259E0,-5.690201E-1,4.748397E-1,-1.2633337E0,9.032411E-1,-2.6430622E-2,1.3137767E0,7.1004903E-1,1.0135255E0,-1.3987136E0,6.918025E-1,9.966692E-1,-5.849127E-1,9.73468E-1,-2.295817E0,-4.617504E-1,1.1025261E0,1.2574031E0,-6.3495576E-1,-1.5437435E-1,1.7527385E0,1.151607E0,-5.822088E-1],"categories":[],"categories_nodes":[],"categories_segments":[],"categories_sizes":[],"default_left":[true,true,true,true,true,true,true,true,true,true,true,true,true,true,false,false,false,true,true,true,true,true,true,false,true,true,true,true,true,true,true,false,false,true,true,true,true,true,true,true,true,true,true,true,true,true,true,true,true,true,true,false,false,false,false,false,false,false,false,false,false,false,false,false,false,false,false,false,false,false,false,false,false,false,false,false,false,false,false,false,false,false,false,false,false,false,false,false,false,false,false],"id":9,"left_children":[1,3,5,7,9,11,13,15,17,19,21,23,25,27,-1,-1,-1,29,31,33,35,37,39,-1,41,43,45,47,49,51,53,-1,-1,55,57,59,61,63,65,67,69,71,73,75,77,79,81,83,85,87,89,-1,-1,-1,-1,-1,-1,-1,-1,-1,-1,-1,-1,-1,-1,-1,-1,-1,-1,-1,-1,-1,-1,-1,-1,-1,-1,-1,-1,-1,-1,-1,-1,-1,-1,-1,-1,-1,-1,-1,-1],"loss_changes":[2.3462612E3,6.9454034E2,3.82531E2,7.268664E2,5.630869E2,6.2673584E1,9.952142E1,4.345703E-1,3.9015625E2,3.7039206E2,3.4762537E2,8.042851E1,4.4975586E1,1.1081259E2,0E0,0E0,0E0,2.2138416E2,1.1416046E1,4.1199026E2,1.4789615E2,3.465074E2,3.1498676E2,0E0,6.1750397E1,3.683789E1,9.3361626E1,1.1061885E2,1.721537E1,3.562256E1,3.3779126E2,0E0,0E0,1.6054982E2,2.5269934E2,5.5329346E1,5.371044E0,2.9710925E2,4.789142E1,2.0443726E0,2.4036528E2,2.9570194E1,3.1763283E1,1.8663574E1,4.875327E1,1.022979E1,5.099868E1,1.482719E2,9.932189E1,7.5169754E0,2.069881E1,0E0,0E0,0E0,0E0,0E0,0E0,0E0,0E0,0E0,0E0,0E0,0E0,0E0,0E0,0E0,0E0,0E0,0E0,0E0,0E0,0E0,0E0,0E0,0E0,0E0,0E0,0E0,0E0,0E0,0E0,0E0,0E0,0E0,0E0,0E0,0E0,0E0,0E0,0E0,0E0],"parents":[2147483647,0,0,1,1,2,2,3,3,4,4,5,5,6,6,7,7,8,8,9,9,10,10,11,11,12,12,13,13,17,17,18,18,19,19,20,20,21,21,22,22,24,24,25,25,26,26,27,27,28,28,29,29,30,30,33,33,34,34,35,35,36,36,37,37,38,38,39,39,40,40,41,41,42,42,43,43,44,44,45,45,46,46,47,47,48,48,49,49,50,50],"right_children":[2,4,6,8,10,12,14,16,18,20,22,24,26,28,-1,-1,-1,30,32,34,36,38,40,-1,42,44,46,48,50,52,54,-1,-1,56,58,60,62,64,66,68,70,72,74,76,78,80,82,84,86,88,90,-1,-1,-1,-1,-1,-1,-1,-1,-1,-1,-1,-1,-1,-1,-1,-1,-1,-1,-1,-1,-1,-1,-1,-1,-1,-1,-1,-1,-1,-1,-1,-1,-1,-1,-1,-1,-1,-1,-1,-1],"split_conditions":[1.35E1,1.5E0,7.1068484E-1,5E-1,4.15E1,1.5E0,5E-1,5E-1,3.5E0,5E-1,6.5E0,8.25E1,8.5E0,2.95E1,3.1195122E-1,8.273284E-2,3.088413E-1,1.5E0,4.5E0,3.5E0,5E-1,7.65E1,8.25E1,3.084916E-1,2.5E0,3.5E0,1.35E1,5.2015692E-2,1.45E1,3.4848487E-1,2.35E1,3.170218E-1,-2.639851E-1,2.5E0,5E-1,1.5E0,1.5E0,2.5E0,5E-1,7.5E0,8.5E0,2.15E1,9.5E0,1.45E1,6.080123E-1,5E-1,5.5E0,1.0050505E-2,1E0,1E0,1.8082896E-1,-2.9458043E-1,8.428827E-1,1.18641905E-1,-1.7410615E-1,-1.1662333E-1,1.00707486E-1,1.271765E-1,-1.9660269E-1,-8.420239E-2,-2.498037E-1,3.0275083E-1,1.5058291E-1,-1.4517777E-1,5.7167364E-3,-1.8463987E-1,-3.0324802E-1,4.2873237E-1,3.2073778E-1,-1.7070603E-1,1.4245191E-1,-3.7900013E-1,2.7097234E-1,-7.929187E-3,3.9413303E-1,2.1301472E-1,3.0405766E-1,-4.196141E-1,2.0754077E-1,2.9900077E-1,-1.7547382E-1,2.920404E-1,-6.887451E-1,-1.3852513E-1,3.3075783E-1,3.7722096E-1,-1.9048674E-1,-4.6312306E-2,5.2582157E-1,3.454821E-1,-1.7466265E-1],"split_indices":[26,2,18,5,25,2,3,2,29,16,26,25,12,30,0,0,0,12,10,28,3,25,25,0,5,16,19,22,26,23,17,0,0,12,9,19,5,2,27,26,28,26,28,26,21,6,29,22,24,24,23,0,0,0,0,0,0,0,0,0,0,0,0,0,0,0,0,0,0,0,0,0,0,0,0,0,0,0,0,0,0,0,0,0,0,0,0,0,0,0,0],"split_type":[0,0,0,0,0,0,0,0,0,0,0,0,0,0,0,0,0,0,0,0,0,0,0,0,0,0,0,0,0,0,0,0,0,0,0,0,0,0,0,0,0,0,0,0,0,0,0,0,0,0,0,0,0,0,0,0,0,0,0,0,0,0,0,0,0,0,0,0,0,0,0,0,0,0,0,0,0,0,0,0,0,0,0,0,0,0,0,0,0,0,0],"sum_hessian":[2.411401E4,2.037024E4,3.74377E3,5.075685E3,1.5294556E4,2.9545896E3,7.891803E2,3.1435275E2,4.761332E3,7.805914E3,7.488641E3,2.39936E2,2.7146536E3,6.8801166E2,1.0116862E2,1.6357553E0,3.12717E2,4.6075835E3,1.5374869E2,6.966332E3,8.395821E2,6.2739976E3,1.2146436E3,1.1141273E2,1.2852328E2,2.6340918E3,8.05619E1,6.212605E2,6.675114E1,1.1476112E3,3.4599722E3,1.5135489E2,2.3937998E0,1.5900088E3,5.376323E3,7.490386E2,9.054347E1,4.8875273E3,1.3864703E3,3.3397794E2,8.806656E2,5.10766E1,7.744668E1,2.5762764E3,5.7815475E1,5.7605694E1,2.2956203E1,2.4184137E2,3.7941916E2,3.703795E1,2.971319E1,1.1460616E3,1.5495876E0,4.0053513E2,3.059437E3,1.1777201E3,4.122887E2,5.1507075E3,2.25616E2,3.1330728E2,4.3573132E2,4.1853313E1,4.869016E1,1.9600088E3,2.9275186E3,9.2033105E2,4.6613925E2,2.6339172E1,3.0763876E2,4.3223502E2,4.4843057E2,4.449714E1,6.57946E0,5.1562145E1,2.5884531E1,2.335433E2,2.342733E3,1.3848735E1,4.3966743E1,5.3825012E1,3.7806833E0,5.8341837E0,1.712202E1,1.12254074E2,1.295873E2,2.9191332E1,3.502278E2,2.028389E0,3.500956E1,2.0277872E1,9.435319E0],"tree_param":{"num_deleted":"0","num_feature":"31","num_nodes":"91","size_leaf_vector":"0"}},{"base_weights":[8.327635E-3,-7.975761E-2,8.414242E-1,-3.7138987E-1,6.965639E-3,9.551976E-1,3.1504533E-1,1.0157028E0,-4.47256E-1,2.9505584E-1,-8.490758E-2,9.8299795E-1,5.0052285E-1,-6.351288E-2,1.0212138E0,1.0197282E0,2.2990572E-1,-6.558711E-1,-7.2190136E-2,-2.2712052E-1,5.314476E-1,-2.4206957E-1,6.4233765E-2,9.8886776E-1,-9.122857E-1,9.3892926E-1,-1.1498982E0,-2.9940978E-1,1.0915967E0,-7.729833E-1,-2.1110648E-1,1.2364628E0,-3.744258E-1,5.792683E-1,-3.740386E-1,7.920304E-1,3.662075E-2,-3.5134575E-1,4.2107177E-1,1.6241997E-1,-6.450757E-1,9.9916315E-1,5.64753E-1,6.1972046E-1,-1.4872344E0,1.1371119E0,-7.0481795E-1,-1.7129087E0,1.0018817E0,1.478723E0,-4.50156E-1,1.1259646E0,-1.4582476E-2,-9.9364144E-1,-6.762962E-1,1.311093E0,-5.8699965E-1,3.6548886E0,-5.265515E-1,-7.2525316E-1,3.6267233E-1,-5.1383603E-2,6.9605696E-1,-5.4633355E-1,3.5405436E-1,3.276236E-1,9.977764E-1,-6.004823E-1,8.6586136E-1,-2.0539571E-1,-6.185525E-1,5.657491E-1,-9.3350685E-1,5.3953502E-2,4.4106525E-1,-8.095184E-1,1.4409643E0,1.0043713E0,2.1094531E-1,1.0584365E0,-2.659073E-1,8.3215433E-1,-1.3102564E0,-2.8274573E-2,-9.882543E-1],"categories":[],"categories_nodes":[],"categories_segments":[],"categories_sizes":[],"default_left":[true,true,true,true,true,true,true,true,true,true,true,true,true,true,false,false,false,true,true,true,true,true,true,true,true,true,true,true,true,true,true,true,true,true,true,true,true,true,true,true,true,true,true,false,false,false,true,false,false,false,true,false,false,false,false,false,false,false,false,false,false,false,false,false,false,false,false,false,false,false,false,false,false,false,false,false,false,false,false,false,false,false,false,false,false],"id":10,"left_children":[1,3,5,7,9,11,13,15,17,19,21,23,25,27,-1,-1,-1,29,31,33,35,37,39,41,43,45,47,49,51,53,55,57,59,61,63,65,67,69,71,73,75,77,79,-1,-1,-1,81,-1,-1,-1,83,-1,-1,-1,-1,-1,-1,-1,-1,-1,-1,-1,-1,-1,-1,-1,-1,-1,-1,-1,-1,-1,-1,-1,-1,-1,-1,-1,-1,-1,-1,-1,-1,-1,-1],"loss_changes":[1.6126182E3,5.0264136E2,1.2554236E2,4.798294E2,4.0550146E2,2.1341919E1,1.0030014E2,5.137329E-1,3.3795422E2,4.573891E2,2.722917E2,1.9000244E1,7.456982E1,6.709737E1,0E0,0E0,0E0,1.4441748E2,6.1157623E2,1.3706601E2,3.2881824E2,4.1002914E2,4.1525342E2,6.519043E0,5.8039837E0,2.7123482E1,2.8086037E1,5.541964E1,1.6044388E0,4.6196533E1,3.3259253E2,1.2389207E3,3.2504718E2,1.3176273E1,1.2284241E2,1.5929163E2,4.658551E2,1.8927332E2,1.5743837E2,1.5825635E2,2.4987207E2,6.284668E0,1.6991003E1,0E0,0E0,0E0,9.754778E0,0E0,0E0,0E0,4.2894146E1,0E0,0E0,0E0,0E0,0E0,0E0,0E0,0E0,0E0,0E0,0E0,0E0,0E0,0E0,0E0,0E0,0E0,0E0,0E0,0E0,0E0,0E0,0E0,0E0,0E0,0E0,0E0,0E0,0E0,0E0,0E0,0E0,0E0,0E0],"parents":[2147483647,0,0,1,1,2,2,3,3,4,4,5,5,6,6,7,7,8,8,9,9,10,10,11,11,12,12,13,13,17,17,18,18,19,19,20,20,21,21,22,22,23,23,24,24,25,25,26,26,27,27,28,28,29,29,30,30,31,31,32,32,33,33,34,34,35,35,36,36,37,37,38,38,39,39,40,40,41,41,42,42,46,46,50,50],"right_children":[2,4,6,8,10,12,14,16,18,20,22,24,26,28,-1,-1,-1,30,32,34,36,38,40,42,44,46,48,50,52,54,56,58,60,62,64,66,68,70,72,74,76,78,80,-1,-1,-1,82,-1,-1,-1,84,-1,-1,-1,-1,-1,-1,-1,-1,-1,-1,-1,-1,-1,-1,-1,-1,-1,-1,-1,-1,-1,-1,-1,-1,-1,-1,-1,-1,-1,-1,-1,-1,-1,-1],"split_conditions":[1.55E1,1.5E0,4.5E0,5E-1,2.75E1,8.5E0,5E-1,3.5E0,7.5E0,1.5E0,2.5E0,1.15E1,1.35E1,2.15E1,3.0636415E-1,3.0591846E-1,6.897172E-2,2E0,8.5E0,5E-1,5E-1,5E-1,5E-1,1.5E0,3E0,5E-1,1.7E1,2.5E0,5.3E1,2.5E0,8.25E1,4.05E1,1.5E0,7.8416145E-1,5E-1,1.85E1,8.5E0,5.8981657E-2,1.35E1,1.7080888E-1,5E-1,8.7947536E-1,9.5E0,1.8591614E-1,-4.4617033E-1,3.411336E-1,1E0,-5.138726E-1,3.0056453E-1,4.4361693E-1,5.7259955E-2,3.3778942E-1,-4.374743E-3,-2.9809245E-1,-2.0288886E-1,3.9332792E-1,-1.760999E-1,1.0964667E0,-1.5796545E-1,-2.1757595E-1,1.088017E-1,-1.5415082E-2,2.088171E-1,-1.6390008E-1,1.0621631E-1,9.828708E-2,2.9933292E-1,-1.801447E-1,2.597584E-1,-6.1618716E-2,-1.8556575E-1,1.6972473E-1,-2.8005207E-1,1.6186051E-2,1.3231958E-1,-2.4285553E-1,4.3228933E-1,3.013114E-1,6.328359E-2,3.1753096E-1,-7.977219E-2,2.496463E-1,-3.9307693E-1,-8.482372E-3,-2.964763E-1],"split_indices":[26,2,10,5,17,12,3,19,28,12,2,11,19,26,0,0,0,26,28,5,9,3,27,8,16,6,26,29,28,28,25,25,24,21,3,20,28,22,30,23,1,21,28,0,0,0,8,0,0,0,22,0,0,0,0,0,0,0,0,0,0,0,0,0,0,0,0,0,0,0,0,0,0,0,0,0,0,0,0,0,0,0,0,0,0],"split_type":[0,0,0,0,0,0,0,0,0,0,0,0,0,0,0,0,0,0,0,0,0,0,0,0,0,0,0,0,0,0,0,0,0,0,0,0,0,0,0,0,0,0,0,0,0,0,0,0,0,0,0,0,0,0,0,0,0,0,0,0,0,0,0,0,0,0,0,0,0,0,0,0,0,0,0,0,0,0,0,0,0,0,0,0,0],"sum_hessian":[2.1973295E4,1.9872982E4,2.1003125E3,4.554354E3,1.5318629E4,1.726357E3,3.7395547E2,2.3553726E2,4.3188164E3,3.7034316E3,1.1615197E4,1.6257888E3,1.0056813E2,2.4404138E2,1.2991408E2,2.3404068E2,1.4965818E0,2.7747346E3,1.5440819E3,1.1541088E3,2.549323E3,5.655221E3,5.959976E3,1.621246E3,4.542888E0,7.9801346E1,2.076678E1,2.0327026E2,4.077113E1,2.1958118E3,5.7892303E2,2.891214E2,1.2549604E3,1.7741096E2,9.7669775E2,1.6695264E3,8.797966E2,4.855564E3,7.996571E2,5.235959E3,7.24017E2,1.5814993E3,3.9746742E1,1.21842E0,3.324468E0,7.1490166E1,8.311179E0,1.6621693E1,4.1450877E0,1.5197555E1,1.8807271E2,3.952523E1,1.2459002E0,6.6618225E2,1.5296294E3,1.14155655E2,4.647674E2,1.2144937E2,1.6767203E2,8.502796E2,4.046809E2,2.7808226E1,1.4960274E2,7.900023E2,1.8669543E2,5.1336316E2,1.1561632E3,4.9769495E2,3.8210165E2,3.141452E3,1.7141123E3,7.230168E2,7.6640305E1,3.769733E3,1.4662263E3,6.716803E2,5.2336685E1,1.5708456E3,1.0653617E1,2.4758121E1,1.4988621E1,2.2428896E0,6.0682898E0,1.0601055E2,8.206215E1],"tree_param":{"num_deleted":"0","num_feature":"31","num_nodes":"85","size_leaf_vector":"0"}},{"base_weights":[3.9722645E-3,-1.2700519E-1,4.5504326E-1,-3.1367537E-2,-4.701323E-1,1.0562783E0,1.4726058E-1,7.7458805E-1,-6.0112413E-2,-7.318768E-1,-1.6698377E-1,1.4468436E0,1.0344067E0,-5.835115E-2,9.7104985E-1,8.0789363E-1,-3.9594412E-1,-1.0120777E0,4.501404E-3,6.384214E-1,-7.7644956E-1,6.9252276E-3,-6.7948806E-1,1.3018552E0,1.7736934E0,-1.21961184E-1,1.4799123E0,-3.0401778E-1,1.0126641E0,1.0060982E0,6.581275E-1,-5.8013576E-1,-2.5220452E-2,-1.025668E0,1.5699747E0,-3.6121693E-2,6.745549E-1,3.555639E-2,5.4899125E0,-8.4564996E-1,-2.112558E-2,-7.9292244E-1,1.4984256E-1,-6.985036E-1,3.363142E0,-4.3025342E-1,1.9104229E-1,1.898576E0,1.1818491E0,1.1406934E0,-8.428356E-1,-8.8748103E-1,1.0218817E0,1.0116295E0,3.8995903E-2,6.9533116E-1,-3.095429E-1,-6.7759436E-1,-3.728801E-2,2.8687987E-1,-3.614979E-1,-5.5168766E-1,-1.0617808E0,1.8347648E0,5.018455E-1,5.896834E-2,-3.18746E-1,-6.300241E-1,9.328353E-1,7.3733974E-1,-9.926006E-1,-7.448694E-1,7.2072945E0,-8.501943E-1,2.7016616E0,6.620698E-1,-9.961128E-1,-1.1377141E0,-1.02415904E-1,-8.951889E-2,6.0979795E-1,-4.996126E-1,-9.7925335E-1,3.3215928E-1,-6.025763E-1,6.679064E-1,-6.267669E-2,2.2589946E0,1.6221615E0,2.7916262E-1,1.2767206E0,-1.1345706E0,8.7961507E-1,-4.127284E-1,1.0258911E0],"categories":[],"categories_nodes":[],"categories_segments":[],"categories_sizes":[],"default_left":[true,true,true,true,true,true,true,true,true,true,true,true,false,true,true,true,true,true,true,true,true,true,true,false,false,true,true,true,true,true,true,true,true,true,true,true,true,true,true,true,true,true,true,true,false,true,true,true,false,true,true,false,true,false,false,false,false,false,false,false,false,false,false,false,false,false,false,false,false,false,false,false,false,false,false,false,false,false,false,false,false,false,false,false,false,false,false,false,false,false,false,false,false,false,false],"id":11,"left_children":[1,3,5,7,9,11,13,15,17,19,21,23,-1,25,27,29,31,33,35,37,39,41,43,-1,-1,45,47,49,51,53,55,57,59,61,63,65,67,69,71,73,75,77,79,81,-1,83,85,87,-1,89,91,-1,93,-1,-1,-1,-1,-1,-1,-1,-1,-1,-1,-1,-1,-1,-1,-1,-1,-1,-1,-1,-1,-1,-1,-1,-1,-1,-1,-1,-1,-1,-1,-1,-1,-1,-1,-1,-1,-1,-1,-1,-1,-1,-1],"loss_changes":[1.1882808E3,5.1148807E2,8.373802E2,2.8246762E2,2.6945618E2,1.1592651E1,5.0730356E2,1.6689194E1,7.240849E2,1.11836914E2,1.4042838E2,1.4228363E0,0E0,2.3477303E2,3.2049988E1,1.1466766E1,8.2442355E-1,2.7865784E1,3.001077E2,1.6937502E2,9.228638E1,1.3470178E2,3.3035156E1,0E0,0E0,2.223345E2,9.645996E0,1.627797E1,1.1057434E1,8.9115906E-1,8.698074E0,4.0663195E-1,6.414895E-1,1.2164551E1,2.989807E-1,2.793896E2,2.1294016E2,3.8667175E1,7.39137E1,2.8375E1,1.00068085E2,4.241301E1,1.1011654E2,2.1742264E1,0E0,1.5268745E2,1.384015E2,1.1880493E-1,0E0,3.1976414E-1,8.488346E0,0E0,3.7434692E0,0E0,0E0,0E0,0E0,0E0,0E0,0E0,0E0,0E0,0E0,0E0,0E0,0E0,0E0,0E0,0E0,0E0,0E0,0E0,0E0,0E0,0E0,0E0,0E0,0E0,0E0,0E0,0E0,0E0,0E0,0E0,0E0,0E0,0E0,0E0,0E0,0E0,0E0,0E0,0E0,0E0,0E0],"parents":[2147483647,0,0,1,1,2,2,3,3,4,4,5,5,6,6,7,7,8,8,9,9,10,10,11,11,13,13,14,14,15,15,16,16,17,17,18,18,19,19,20,20,21,21,22,22,25,25,26,26,27,27,28,28,29,29,30,30,31,31,32,32,33,33,34,34,35,35,36,36,37,37,38,38,39,39,40,40,41,41,42,42,43,43,45,45,46,46,47,47,49,49,50,50,52,52],"right_children":[2,4,6,8,10,12,14,16,18,20,22,24,-1,26,28,30,32,34,36,38,40,42,44,-1,-1,46,48,50,52,54,56,58,60,62,64,66,68,70,72,74,76,78,80,82,-1,84,86,88,-1,90,92,-1,94,-1,-1,-1,-1,-1,-1,-1,-1,-1,-1,-1,-1,-1,-1,-1,-1,-1,-1,-1,-1,-1,-1,-1,-1,-1,-1,-1,-1,-1,-1,-1,-1,-1,-1,-1,-1,-1,-1,-1,-1,-1,-1],"split_conditions":[2E0,4.5E0,8.25E1,5E-1,2.5E0,7.5E0,5E-1,5E-1,5E-1,5E-1,5.75E1,8.138095E-1,3.1032202E-1,5E-1,1.05E1,1.5E0,5E-1,5E-1,1.14835165E-1,5E-1,5E-1,3.35E1,2.983051E-1,3.9055657E-1,5.3210807E-1,8.5E0,1.25E1,4.5E0,1.5E0,1.5E0,1.8469785E-1,2.5E0,1.396104E-1,9.019139E-1,6E1,1.9455253E-3,1.85E1,5E-1,2.05E1,3.771097E-1,1.35E1,9.5E0,1.7129987E-1,1.415E2,1.0089426E0,1.4418745E-1,9.5E0,5E-1,3.5455474E-1,9.05E1,4.5E0,-2.6624432E-1,2.5E0,3.0348885E-1,1.1698771E-2,2.0859936E-1,-9.2862874E-2,-2.0327832E-1,-1.1186403E-2,8.6063966E-2,-1.0844938E-1,-1.655063E-1,-3.1853426E-1,5.5042946E-1,1.5055364E-1,1.7690502E-2,-9.5623806E-2,-1.8900724E-1,2.798506E-1,2.2120193E-1,-2.977802E-1,-2.2346084E-1,2.1621885E0,-2.550583E-1,8.1049854E-1,1.9862095E-1,-2.9883385E-1,-3.4131426E-1,-3.0724773E-2,-2.6855668E-2,1.829394E-1,-1.4988379E-1,-2.93776E-1,9.964779E-2,-1.807729E-1,2.0037194E-1,-1.8803008E-2,6.776984E-1,4.8664847E-1,8.374879E-2,3.830162E-1,-3.403712E-1,2.6388454E-1,-1.23818524E-1,3.0776733E-1],"split_indices":[26,30,25,5,2,26,3,3,28,28,20,18,0,15,26,2,10,15,22,7,3,17,23,0,0,28,26,12,2,19,23,30,23,18,20,22,20,5,20,23,30,28,23,25,0,23,28,27,0,25,2,0,17,0,0,0,0,0,0,0,0,0,0,0,0,0,0,0,0,0,0,0,0,0,0,0,0,0,0,0,0,0,0,0,0,0,0,0,0,0,0,0,0,0,0],"split_type":[0,0,0,0,0,0,0,0,0,0,0,0,0,0,0,0,0,0,0,0,0,0,0,0,0,0,0,0,0,0,0,0,0,0,0,0,0,0,0,0,0,0,0,0,0,0,0,0,0,0,0,0,0,0,0,0,0,0,0,0,0,0,0,0,0,0,0,0,0,0,0,0,0,0,0,0,0,0,0,0,0,0,0,0,0,0,0,0,0,0,0,0,0,0,0],"sum_hessian":[2.0111059E4,1.5586056E4,4.5250034E3,1.2189613E4,3.3964424E3,1.5312893E3,2.993714E3,4.188845E2,1.1770729E4,1.821934E3,1.5745084E3,7.774996E1,1.4535393E3,2.3964956E3,5.972185E2,4.075968E2,1.1287689E1,7.4721606E2,1.1023513E4,5.69768E1,1.7649572E3,1.1763291E3,3.9817935E2,5.7310463E1,2.0439495E1,2.3022156E3,9.428014E1,1.8676054E1,5.785425E2,1.7296822E2,2.346286E2,7.1636186E0,4.1240706E0,7.439034E2,3.3126585E0,1.0394288E4,6.2922473E2,5.1575195E1,5.4016037E0,1.616719E3,1.4823822E2,1.7763474E2,9.986944E2,3.9713852E2,1.0408245E0,1.1596478E3,1.1425677E3,3.6974934E1,5.730521E1,4.7698393E0,1.3906215E1,2.3329718E0,5.762095E2,1.7193878E2,1.029429E0,2.262129E2,8.415685E0,5.86283E0,1.3007882E0,2.2151122E0,1.9089584E0,5.3818108E1,6.9008527E2,2.0794291E0,1.2332295E0,7.778106E3,2.616182E3,1.0374875E2,5.2547595E2,3.082084E1,2.0754354E1,1.2888479E0,4.1127563E0,1.6154099E3,1.309121E0,8.735063E1,6.0887596E1,1.18044E2,5.9590744E1,6.57392E2,3.4130237E2,2.3408542E2,1.6305312E2,2.1361555E2,9.460323E2,3.9622726E2,7.4634045E2,1.2935615E1,2.403932E1,1.0666221E0,3.7032173E0,1.2183906E1,1.7223089E0,1.3217652E0,5.7488776E2],"tree_param":{"num_deleted":"0","num_feature":"31","num_nodes":"95","size_leaf_vector":"0"}},{"base_weights":[3.5205162E-3,-4.4398088E-2,9.2093307E-1,-2.9459167E-1,2.1830002E-2,9.593318E-1,-1.6762838E-1,9.98551E-1,-3.424502E-1,-3.0564265E-2,3.619477E-1,9.715717E-1,-3.8577753E-1,-1.367206E0,9.44779E-1,1.384529E-1,1.0057122E0,-8.8872796E-1,-2.2562726E-1,3.69987E-2,-4.022486E-1,1.0338814E0,6.2359422E-2,9.909945E-1,5.078709E-1,-1.0139518E0,7.7898324E-1,-1.5158033E0,8.4923536E-2,2.7950635E-2,1.0001478E0,-9.002543E-1,1.5075264E0,-4.515877E-1,8.32711E-2,4.334667E-2,-2.6430478E0,-2.7453434E-1,-7.3098916E-1,2.3464386E-1,-6.6867167E-1,9.939338E-1,-2.2441927E-2,-2.2604366E-1,1.10949E0,-2.2557511E0,-1.0616722E0,-1.0069228E0,-8.260909E-1,4.3341112E-1,-5.8428574E-1,7.541629E-1,-3.5446122E-1,7.827092E-2,-3.6618593E-1,-3.1198113E0,6.0215056E-1,-3.126394E-1,7.566224E-1,-7.443149E-1,2.8394427E0,-9.834179E-2,6.982921E-1,1.3831592E0,-8.2277524E-1,9.0204215E-1,1.0240568E0,-7.83653E-1,6.1504734E-1,5.166591E-1,-9.087893E-1],"categories":[],"categories_nodes":[],"categories_segments":[],"categories_sizes":[],"default_left":[true,true,true,true,true,true,true,true,true,true,true,true,true,true,true,false,false,true,true,true,true,false,true,true,true,false,false,true,false,false,false,true,false,true,true,true,true,true,true,true,true,true,true,true,false,false,false,false,false,false,false,false,false,false,false,false,false,false,false,false,false,false,false,false,false,false,false,false,false,false,false],"id":12,"left_children":[1,3,5,7,9,11,13,15,17,19,21,23,25,27,29,-1,-1,31,33,35,37,-1,39,41,43,-1,-1,45,-1,-1,-1,47,-1,49,51,53,55,57,59,61,63,65,67,69,-1,-1,-1,-1,-1,-1,-1,-1,-1,-1,-1,-1,-1,-1,-1,-1,-1,-1,-1,-1,-1,-1,-1,-1,-1,-1,-1],"loss_changes":[8.2089734E2,2.9406137E2,3.8906006E1,2.3022128E2,2.5008122E2,1.5118225E1,4.4572887E1,6.78833E-1,2.2843488E2,3.053952E2,3.7702905E2,7.491699E0,7.221927E0,3.584364E0,8.5635185E-1,0E0,0E0,1.8780823E1,2.0613896E2,1.7519556E2,7.833551E1,0E0,1.6346588E2,2.557129E0,1.69141E1,0E0,0E0,2.5047798E0,0E0,0E0,0E0,4.13974E0,0E0,2.0054184E2,3.6685773E2,1.4688464E2,3.952809E1,5.3234077E1,2.6986725E1,1.6219176E2,7.9416954E1,1.4250488E0,2.1507387E0,9.511333E0,0E0,0E0,0E0,0E0,0E0,0E0,0E0,0E0,0E0,0E0,0E0,0E0,0E0,0E0,0E0,0E0,0E0,0E0,0E0,0E0,0E0,0E0,0E0,0E0,0E0,0E0,0E0],"parents":[2147483647,0,0,1,1,2,2,3,3,4,4,5,5,6,6,7,7,8,8,9,9,10,10,11,11,12,12,13,13,14,14,17,17,18,18,19,19,20,20,22,22,23,23,24,24,27,27,31,31,33,33,34,34,35,35,36,36,37,37,38,38,39,39,40,40,41,41,42,42,43,43],"right_children":[2,4,6,8,10,12,14,16,18,20,22,24,26,28,30,-1,-1,32,34,36,38,-1,40,42,44,-1,-1,46,-1,-1,-1,48,-1,50,52,54,56,58,60,62,64,66,68,70,-1,-1,-1,-1,-1,-1,-1,-1,-1,-1,-1,-1,-1,-1,-1,-1,-1,-1,-1,-1,-1,-1,-1,-1,-1,-1,-1],"split_conditions":[1.75E1,1.5E0,3.85E1,5E-1,6.5E0,5E-1,1.5E0,5E-1,1.5E0,4.75E1,8.25E1,9.5E0,1.85E1,2.15E1,5.6037414E-1,4.1535873E-2,3.0171365E-1,3.4848487E-1,7.5E0,1.5E0,6.75E1,3.1016445E-1,1.25E1,6.5E0,1.95E1,-3.0418554E-1,2.3369499E-1,5.65E1,2.5477061E-2,8.385191E-3,3.0004436E-1,1.5E0,4.5225793E-1,2.15E1,5E-1,5E-1,5.5E0,5E-1,3.7586075E-1,8.5E0,5.246258E-1,1.95E1,7.2E1,3.5E0,3.3284703E-1,-6.767254E-1,-3.1850168E-1,-3.0207688E-1,-2.4782728E-1,1.3002335E-1,-1.7528573E-1,2.2624888E-1,-1.06338374E-1,2.3481278E-2,-1.09855786E-1,-9.359434E-1,1.8064517E-1,-9.379182E-2,2.2698672E-1,-2.2329448E-1,8.5183287E-1,-2.9502539E-2,2.0948763E-1,4.1494778E-1,-2.4683258E-1,2.7061266E-1,3.0721706E-1,-2.3509592E-1,1.8451421E-1,1.5499774E-1,-2.726368E-1],"split_indices":[26,2,28,5,26,6,2,2,12,20,25,10,26,26,18,0,0,23,28,3,20,0,28,16,26,0,0,17,0,0,0,28,0,17,10,11,12,15,23,28,21,26,20,2,0,0,0,0,0,0,0,0,0,0,0,0,0,0,0,0,0,0,0,0,0,0,0,0,0,0,0],"split_type":[0,0,0,0,0,0,0,0,0,0,0,0,0,0,0,0,0,0,0,0,0,0,0,0,0,0,0,0,0,0,0,0,0,0,0,0,0,0,0,0,0,0,0,0,0,0,0,0,0,0,0,0,0,0,0,0,0,0,0,0,0,0,0,0,0,0,0,0,0,0,0],"sum_hessian":[1.8671324E4,1.7745393E4,9.2593176E2,3.7134468E3,1.4031946E4,8.944973E2,3.1434477E1,1.3181898E2,3.581628E3,1.21596875E4,1.8722588E3,8.8670636E2,7.7909184E0,1.5014433E1,1.6420044E1,1.256362E0,1.3056262E2,6.298356E2,2.9517922E3,1.0290103E4,1.8695844E3,5.765927E2,1.295666E3,8.4996704E2,3.673932E1,5.145398E0,2.6455202E0,1.3580848E1,1.4335853E0,1.0208608E0,1.5399182E1,6.2744183E2,2.3937743E0,1.7044893E3,1.247303E3,1.0266769E4,2.333408E1,1.3478038E3,5.217806E2,1.0491002E3,2.465658E2,8.475282E2,2.438861E0,1.6831213E1,1.9908104E1,3.656262E0,9.924586E0,2.5217047E2,3.7527136E2,2.2195378E2,1.4825355E3,4.9220325E2,7.5509973E2,9.460778E3,8.0599036E2,2.0378798E1,2.955283E0,1.3004445E3,4.7359383E1,5.2062897E2,1.1515896E0,6.110445E2,4.3805576E2,1.6667593E1,2.2989821E2,2.1687778E2,6.306504E2,1.0070662E0,1.4317946E0,8.178145E0,8.653069E0],"tree_param":{"num_deleted":"0","num_feature":"31","num_nodes":"71","size_leaf_vector":"0"}},{"base_weights":[3.1226752E-3,-3.3783518E-2,8.926723E-1,-9.485055E-2,1.722218E-1,9.3262666E-1,-1.5412627E-1,-5.2309107E-2,-5.8188504E-1,1.0896812E-1,9.938786E-1,9.8603815E-1,5.424985E-1,-1.1730545E0,9.021576E-1,-3.2236674E-1,2.1591516E-2,-6.5665793E-1,4.6722835E-1,2.3136795E-1,-3.1236765E-1,-7.7995425E-1,1.0108068E0,1.0030854E0,5.805365E-1,7.3095925E-2,1.0921926E0,-1.3178321E0,7.03867E-2,1.5735848E-2,9.715197E-1,6.976732E-1,-4.732296E-1,1.2238493E-1,-2.955462E-1,-7.410228E-1,-2.1527559E-1,1.5565253E0,1.4252181E-2,1.4591615E-1,7.20603E-1,-1.8063378E-1,-8.92773E-1,-3.11801E-1,1.0186982E0,-3.555973E-1,8.9916503E-1,-6.052858E-1,6.6156816E-1,1.1190592E0,5.1746268E-2,9.8958737E-1,5.738078E-1,-6.420631E-1,-8.258825E-2,-4.1397954E-3,3.903252E-1,-6.22176E-1,1.10156275E-2,-8.05921E-1,7.700988E-2,4.968286E-1,-5.4181796E-1,2.6032138E-1,1.6410618E0,-3.576719E-1,7.8652143E-1,1.6310118E-1,-2.02296E0,7.656496E-1,-1.1301798E0,2.1293928E-1,-4.8503628E-1,-1.0141904E0,2.5024104E-1,7.256433E-1,-1.0509748E0,2.8903893E-1,9.929054E-1,-9.0043914E-1,7.8777665E-1,9.0671676E-1,-3.4617302E-1],"categories":[],"categories_nodes":[],"categories_segments":[],"categories_sizes":[],"default_left":[true,true,true,true,true,true,true,true,true,true,true,true,true,true,true,true,true,true,true,true,true,false,true,false,true,true,true,false,false,false,false,true,true,true,true,true,true,true,true,true,true,true,true,false,false,true,true,true,true,false,false,false,false,false,false,false,false,false,false,false,false,false,false,false,false,false,false,false,false,false,false,false,false,false,false,false,false,false,false,false,false,false,false],"id":13,"left_children":[1,3,5,7,9,11,13,15,17,19,21,23,25,27,29,31,33,35,37,39,41,-1,43,-1,45,47,49,-1,-1,-1,-1,51,53,55,57,59,61,63,65,67,69,71,73,-1,-1,75,77,79,81,-1,-1,-1,-1,-1,-1,-1,-1,-1,-1,-1,-1,-1,-1,-1,-1,-1,-1,-1,-1,-1,-1,-1,-1,-1,-1,-1,-1,-1,-1,-1,-1,-1,-1],"loss_changes":[5.8257404E2,2.1436185E2,2.9709106E1,2.722848E2,2.0239069E2,1.3656311E1,2.9953297E1,2.412615E2,8.312204E1,1.867024E2,9.147583E0,3.550171E0,2.1655344E1,2.6310692E0,8.299465E-1,4.0002017E2,3.0345645E2,3.6552063E1,3.4922806E1,1.1715242E2,6.2157845E1,0E0,3.2002869E0,0E0,8.221759E0,1.8966824E1,1.0246582E0,0E0,0E0,0E0,0E0,1.1546921E1,1.4921652E2,2.4421178E2,2.2926323E2,4.398108E1,3.7383934E1,1.8510513E0,1.4938367E1,8.937332E1,3.561458E1,7.9838715E1,2.1143211E1,0E0,0E0,6.359458E0,8.596363E-1,9.806762E0,6.5844383E0,0E0,0E0,0E0,0E0,0E0,0E0,0E0,0E0,0E0,0E0,0E0,0E0,0E0,0E0,0E0,0E0,0E0,0E0,0E0,0E0,0E0,0E0,0E0,0E0,0E0,0E0,0E0,0E0,0E0,0E0,0E0,0E0,0E0,0E0],"parents":[2147483647,0,0,1,1,2,2,3,3,4,4,5,5,6,6,7,7,8,8,9,9,10,10,11,11,12,12,13,13,14,14,15,15,16,16,17,17,18,18,19,19,20,20,22,22,24,24,25,25,26,26,31,31,32,32,33,33,34,34,35,35,36,36,37,37,38,38,39,39,40,40,41,41,42,42,45,45,46,46,47,47,48,48],"right_children":[2,4,6,8,10,12,14,16,18,20,22,24,26,28,30,32,34,36,38,40,42,-1,44,-1,46,48,50,-1,-1,-1,-1,52,54,56,58,60,62,64,66,68,70,72,74,-1,-1,76,78,80,82,-1,-1,-1,-1,-1,-1,-1,-1,-1,-1,-1,-1,-1,-1,-1,-1,-1,-1,-1,-1,-1,-1,-1,-1,-1,-1,-1,-1,-1,-1,-1,-1,-1,-1],"split_conditions":[1.75E1,5E-1,3.85E1,1.5E0,1.05E1,6.983443E-1,1.5E0,1.5E0,6.5E0,3.5E0,1.5E0,5.5E0,1.95E1,2.15E1,4.65E1,5E-1,1.5E0,8.5388935E-1,5E-1,1.15E1,5.5E0,-2.3398629E-1,2.5E0,3.009256E-1,1.95E1,8.5E0,8.7236476E-1,-3.9534965E-1,2.111601E-2,4.7207545E-3,2.9145592E-1,1.5E0,2.5E0,7.5E0,5E-1,3.5E0,4.5E0,5.85E1,1.15E1,5E-1,2.4384385E-1,8.0365485E-1,5.5E0,-9.3540296E-2,3.0560946E-1,9.5E1,4.5E0,5E-1,5.5E0,3.3571777E-1,1.5523881E-2,2.9687622E-1,1.7214234E-1,-1.9261894E-1,-2.4776476E-2,-1.2419387E-3,1.17097564E-1,-1.8665281E-1,3.3046885E-3,-2.4177632E-1,2.3102965E-2,1.4904858E-1,-1.625454E-1,7.809642E-2,4.9231854E-1,-1.0730157E-1,2.3595645E-1,4.893036E-2,-6.06888E-1,2.2969489E-1,-3.3905393E-1,6.3881785E-2,-1.455109E-1,-3.0425715E-1,7.507232E-2,2.1769299E-1,-3.1529248E-1,8.671168E-2,2.9787162E-1,-2.7013177E-1,2.36333E-1,2.7201504E-1,-1.0385191E-1],"split_indices":[26,3,28,16,26,18,2,12,12,2,2,5,26,26,17,5,10,21,24,28,2,0,17,0,26,28,21,0,0,0,0,2,2,28,1,2,28,17,26,6,22,21,5,0,0,25,28,3,29,0,0,0,0,0,0,0,0,0,0,0,0,0,0,0,0,0,0,0,0,0,0,0,0,0,0,0,0,0,0,0,0,0,0],"split_type":[0,0,0,0,0,0,0,0,0,0,0,0,0,0,0,0,0,0,0,0,0,0,0,0,0,0,0,0,0,0,0,0,0,0,0,0,0,0,0,0,0,0,0,0,0,0,0,0,0,0,0,0,0,0,0,0,0,0,0,0,0,0,0,0,0,0,0,0,0,0,0,0,0,0,0,0,0,0,0,0,0,0,0],"sum_hessian":[1.7743312E4,1.7037416E4,7.05897E2,1.3142167E4,3.8952488E3,6.800498E2,2.5847183E1,1.208746E4,1.0547069E3,3.617867E3,2.7738193E2,5.96814E2,8.323579E1,1.3099959E1,1.2747224E1,2.59631E3,9.491149E3,9.8488574E2,6.98212E1,2.8038015E3,8.1406537E2,2.196018E0,2.751859E2,5.7132196E2,2.549204E1,4.5507957E1,3.7727825E1,1.1680174E1,1.419786E0,1.0141118E0,1.1733112E1,3.340499E2,2.2622603E3,7.202613E3,2.2885364E3,8.2627454E2,1.5861122E2,1.9791428E1,5.0029766E1,2.3880017E3,4.1579987E2,6.6454553E2,1.4951982E2,1.4037633E0,2.7378214E2,6.443869E0,1.9048172E1,2.1125841E1,2.4382116E1,3.6704483E1,1.0233428E0,9.743505E1,2.3661484E2,1.5791256E3,6.8313464E2,4.893042E3,2.3095708E3,1.107504E3,1.1810323E3,7.655545E2,6.0720024E1,4.970218E1,1.0890905E2,1.4615024E0,1.8329926E1,3.4129765E1,1.59000025E1,2.3701467E3,1.7854998E1,4.0649246E2,9.307406E0,2.8995398E2,3.7459158E2,1.35264E2,1.4255814E1,2.5051284E0,3.9387407E0,3.0806425E0,1.5967529E1,1.772418E1,3.4016623E0,1.9691986E1,4.6901307E0],"tree_param":{"num_deleted":"0","num_feature":"31","num_nodes":"83","size_leaf_vector":"0"}},{"base_weights":[1.5285457E-3,-2.7079932E-2,8.682561E-1,-2.2317153E-1,2.030168E-2,9.0888476E-1,-1.3860855E-1,-3.5022584E-1,7.510945E-2,5.3813174E-2,-3.961257E-1,9.7322255E-1,4.87445E-1,-1.0523943E0,8.552536E-1,-1.3739674E-1,-7.633713E-1,9.273291E-1,-2.0550591E-1,3.976295E-2,1.2571802E0,-5.516828E-1,2.0871028E-1,9.9451846E-1,5.245734E-1,7.069436E-2,1.0530291E0,-1.2549403E0,-3.7417017E-2,1.3395456E-2,9.3909276E-1,5.998191E-2,-7.211821E-1,-7.732414E-1,1.4183571E0,1.3511347E0,-8.870514E-1,1.0492443E0,-4.0315643E-1,-8.7066874E-2,1.3278966E-1,2.1762636E0,7.171128E-1,-8.378063E-1,-7.0433065E-2,1.0852742E0,-3.996187E-1,-2.4494745E-1,8.498312E-1,-4.570037E-1,5.600918E-1,1.0867463E0,4.4242185E-2,1.9820687E-1,-7.8623325E-1,6.33057E-1,-7.7865666E-1,-3.9492193E-1,-8.1171864E-1,6.720427E-1,2.2706988E0,-1.0193712E0,1.7445852E0,-6.53578E-1,7.1661204E-1,-3.662891E-1,1.7299246E-2,1.9334495E-1,-1.8070981E-1,3.3415337E0,8.376447E-1,1.0883665E0,-2.9629683E-1,2.9552352E-1,-8.7911135E-1,-3.2841313E-1,4.4536898E-1,1.2075939E0,-2.6414132E-1,-7.377331E-1,1.1706898E0,-1.07331E0,4.8178533E-1,2.4040322E-1,9.629753E-1,-6.792048E-1,7.414369E-1,-6.491128E-1,7.3493385E-1],"categories":[],"categories_nodes":[],"categories_segments":[],"categories_sizes":[],"default_left":[true,true,true,true,true,true,true,true,true,true,true,true,true,true,true,true,true,true,true,true,true,true,true,false,true,true,true,false,false,false,false,true,true,true,false,true,true,false,true,true,true,true,true,true,true,true,true,true,true,true,true,false,false,false,false,false,false,false,false,false,false,false,false,false,false,false,false,false,false,false,false,false,false,false,false,false,false,false,false,false,false,false,false,false,false,false,false,false,false],"id":14,"left_children":[1,3,5,7,9,11,13,15,17,19,21,23,25,27,29,31,33,35,37,39,41,43,45,-1,47,49,51,-1,-1,-1,-1,53,55,57,-1,59,61,-1,63,65,67,69,71,73,75,77,79,81,83,85,87,-1,-1,-1,-1,-1,-1,-1,-1,-1,-1,-1,-1,-1,-1,-1,-1,-1,-1,-1,-1,-1,-1,-1,-1,-1,-1,-1,-1,-1,-1,-1,-1,-1,-1,-1,-1,-1,-1],"loss_changes":[4.1847617E2,1.5180046E2,2.2186005E1,1.20523315E2,1.8365926E2,1.3583954E1,2.0683704E1,1.9597086E2,2.2752156E2,2.0588385E2,9.234041E1,3.7664185E0,1.6583607E1,2.3783655E0,7.6284885E-1,1.6976959E2,1.7418274E1,1.8240341E2,1.7797789E2,1.4207144E2,6.819708E1,1.0733971E2,1.0774976E2,0E0,5.8283143E0,1.104118E1,9.6928024E-1,0E0,0E0,0E0,0E0,1.290218E2,2.9467316E1,1.0672333E1,0E0,1.1801523E2,1.7526611E1,0E0,1.7411047E2,1.4848761E2,1.3190256E2,7.75717E1,3.418787E1,2.3153534E1,3.8989777E1,1.39724655E1,6.433E1,5.000436E0,8.7222385E-1,6.001345E0,5.152953E0,0E0,0E0,0E0,0E0,0E0,0E0,0E0,0E0,0E0,0E0,0E0,0E0,0E0,0E0,0E0,0E0,0E0,0E0,0E0,0E0,0E0,0E0,0E0,0E0,0E0,0E0,0E0,0E0,0E0,0E0,0E0,0E0,0E0,0E0,0E0,0E0,0E0,0E0],"parents":[2147483647,0,0,1,1,2,2,3,3,4,4,5,5,6,6,7,7,8,8,9,9,10,10,11,11,12,12,13,13,14,14,15,15,16,16,17,17,18,18,19,19,20,20,21,21,22,22,24,24,25,25,26,26,31,31,32,32,33,33,35,35,36,36,38,38,39,39,40,40,41,41,42,42,43,43,44,44,45,45,46,46,47,47,48,48,49,49,50,50],"right_children":[2,4,6,8,10,12,14,16,18,20,22,24,26,28,30,32,34,36,38,40,42,44,46,-1,48,50,52,-1,-1,-1,-1,54,56,58,-1,60,62,-1,64,66,68,70,72,74,76,78,80,82,84,86,88,-1,-1,-1,-1,-1,-1,-1,-1,-1,-1,-1,-1,-1,-1,-1,-1,-1,-1,-1,-1,-1,-1,-1,-1,-1,-1,-1,-1,-1,-1,-1,-1,-1,-1,-1,-1,-1,-1],"split_conditions":[1.75E1,1.5E0,3.85E1,2E0,5E-1,6.983443E-1,1.5E0,1.5E0,2.5E0,5E-1,2.5E0,5.5E0,1.95E1,8.5628223E-1,4.65E1,5E-1,3.4166667E-1,1.5E0,8.25E1,1.4697574E-1,1.5E0,8.4364367E-1,7.5E0,2.9835555E-1,1.95E1,8.5E0,8.7236476E-1,-3.764821E-1,-1.1225105E-2,4.018637E-3,2.8172785E-1,4.15E1,1.65E1,2.35E1,4.2550716E-1,8.5E0,3.9E1,3.147733E-1,2.35E1,8.2025063E-1,5E-1,5E-1,2.0766969E-1,5E-1,1.05E1,8.302729E-1,5.5E0,8.5E0,4.5E0,5E-1,5E-1,3.260239E-1,1.3272656E-2,5.9462063E-2,-2.3586999E-1,1.899171E-1,-2.3359701E-1,-1.18476585E-1,-2.435156E-1,2.0161283E-1,6.812097E-1,-3.0581135E-1,5.233756E-1,-1.960734E-1,2.1498363E-1,-1.09886736E-1,5.189774E-3,5.800349E-2,-5.4212946E-2,1.0024601E0,2.5129342E-1,3.2650995E-1,-8.8889055E-2,8.865706E-2,-2.6373342E-1,-9.8523945E-2,1.336107E-1,3.622782E-1,-7.92424E-2,-2.2131994E-1,3.5120696E-1,-3.2199302E-1,1.445356E-1,7.212097E-2,2.888926E-1,-2.0376146E-1,2.2243108E-1,-1.9473386E-1,2.2048016E-1],"split_indices":[26,2,28,26,27,18,2,30,29,15,26,5,26,21,17,19,23,8,25,23,5,21,28,0,26,28,21,0,0,0,0,17,17,25,0,30,28,0,28,21,9,3,23,5,28,21,5,28,28,3,10,0,0,0,0,0,0,0,0,0,0,0,0,0,0,0,0,0,0,0,0,0,0,0,0,0,0,0,0,0,0,0,0,0,0,0,0,0,0],"split_type":[0,0,0,0,0,0,0,0,0,0,0,0,0,0,0,0,0,0,0,0,0,0,0,0,0,0,0,0,0,0,0,0,0,0,0,0,0,0,0,0,0,0,0,0,0,0,0,0,0,0,0,0,0,0,0,0,0,0,0,0,0,0,0,0,0,0,0,0,0,0,0,0,0,0,0,0,0,0,0,0,0,0,0,0,0,0,0,0,0],"sum_hessian":[1.6874979E4,1.6336714E4,5.382648E2,3.1785183E3,1.3158196E4,5.1748083E2,2.0783903E1,2.228923E3,9.495953E2,1.2178978E4,9.792179E2,4.478083E2,6.967254E1,1.0797486E1,9.986417E0,1.4719767E3,7.569463E2,2.3465404E2,7.149412E2,1.2039441E4,1.3953654E2,7.789647E2,2.0025316E2,4.26354E2,2.1454313E1,4.0762028E1,2.8910507E1,8.804136E0,1.9933499E0,1.009496E0,8.976921E0,1.1007192E3,3.7125745E2,7.5418E2,2.7663128E0,1.9042874E2,4.4225296E1,9.6706726E1,6.182345E2,5.094211E3,6.9452305E3,5.0524555E1,8.9011986E1,4.8805453E2,2.909102E2,8.171825E1,1.18534904E2,6.4474163E0,1.5006897E1,1.964538E1,2.111665E1,2.7900688E1,1.0098208E0,9.468258E2,1.5389343E2,1.4707132E1,3.5655032E2,7.0663155E1,6.8351685E2,1.1053224E2,7.98965E1,4.2691402E1,1.5338925E0,5.0558368E2,1.12650826E2,1.385342E3,3.7088687E3,5.8211963E3,1.1240343E3,2.621131E1,2.4313248E1,6.50921E1,2.3919884E1,1.6945621E1,4.7110892E2,1.9416249E2,9.67477E1,7.50228E1,6.6954503E0,9.797039E1,2.0564514E1,2.7901645E0,3.6572518E0,2.8391478E0,1.2167749E1,1.693816E1,2.7072196E0,2.3249269E0,1.8791723E1],"tree_param":{"num_deleted":"0","num_feature":"31","num_nodes":"89","size_leaf_vector":"0"}},{"base_weights":[-8.390109E-4,-2.266656E-2,8.375655E-1,-6.0763124E-2,1.8790448E-1,9.655932E-1,4.7444257E-1,7.5100055E-3,-2.5488243E-1,1.0471061E0,-3.9014988E-2,9.864055E-1,-5.415062E-1,1.8900748E-1,9.7932655E-1,-1.2816662E-1,1.6730328E-1,-1.1163381E-1,-5.289333E-1,1.1920841E0,1.0201501E0,3.9176157E-1,-2.1063873E-1,9.991248E-1,7.5114846E-1,6.1722225E-1,-1.2443284E0,-9.2230433E-1,2.9917386E-1,2.9303432E-1,9.9963135E-1,-9.365195E-2,-7.799905E-1,2.6356134E-1,-1.9199848E-1,-2.981088E-1,1.3435754E-1,9.789429E-1,-5.9877896E-1,7.626297E-1,-3.9668712E-1,7.2267836E-1,-2.9943565E-1,4.5968103E-1,1.002272E0,-1.4880584E0,9.53476E-1,-2.4492991E-1,7.000485E-1,-1.7717895E-1,3.5060075E-1,-8.946445E-1,1.4524691E-1,4.1746405E-1,7.014399E-2,-6.215163E-2,-7.181931E-1,6.849838E-1,-3.433778E-1,2.6544142E-1,-8.689471E-1,1.2976838E0,-1.1394414E0,-9.7216964E-1,-4.1214895E-1,1.3779898E-1,1.1787665E0,4.179792E-1,-8.734504E-1,-1.2835783E0,8.754713E-1,-3.5895425E-1,8.911444E-1,6.099813E-1,4.8423517E-2,-5.6733274E-1,6.065818E-1,8.185452E-1,-8.1185997E-1],"categories":[],"categories_nodes":[],"categories_segments":[],"categories_sizes":[],"default_left":[true,true,true,true,true,true,true,true,true,true,true,true,true,true,true,true,true,true,true,false,false,true,true,true,true,false,false,false,true,false,false,true,true,true,true,true,true,true,true,true,true,true,true,true,false,false,false,true,true,false,false,false,false,false,false,false,false,false,false,false,false,false,false,false,false,false,false,false,false,false,false,false,false,false,false,false,false,false,false],"id":15,"left_children":[1,3,5,7,9,11,13,15,17,19,21,23,25,27,29,31,33,35,37,-1,-1,39,41,43,45,-1,-1,-1,47,-1,-1,49,51,53,55,57,59,61,63,65,67,69,71,73,-1,-1,-1,75,77,-1,-1,-1,-1,-1,-1,-1,-1,-1,-1,-1,-1,-1,-1,-1,-1,-1,-1,-1,-1,-1,-1,-1,-1,-1,-1,-1,-1,-1,-1],"loss_changes":[2.9908072E2,1.2778802E2,1.8820557E1,1.7876962E2,4.7586203E2,1.0120422E1,1.5676073E1,2.1638983E2,1.3772351E2,7.767334E-1,1.428864E2,1.5264893E-1,4.684066E0,9.035803E0,2.5766373E-1,1.2136508E2,1.5856168E2,1.0582775E2,1.2744595E2,0E0,0E0,1.6131946E2,1.1474368E2,2.0233154E-2,1.025788E1,0E0,0E0,0E0,1.4535013E1,0E0,0E0,1.9033029E2,2.8911255E1,1.07584854E2,6.616055E1,5.8628197E1,1.3110245E2,3.774054E1,7.98656E1,9.730176E1,6.903987E1,3.8015434E1,8.9787605E1,1.8621582E-1,0E0,0E0,0E0,8.216666E0,7.5040035E0,0E0,0E0,0E0,0E0,0E0,0E0,0E0,0E0,0E0,0E0,0E0,0E0,0E0,0E0,0E0,0E0,0E0,0E0,0E0,0E0,0E0,0E0,0E0,0E0,0E0,0E0,0E0,0E0,0E0,0E0],"parents":[2147483647,0,0,1,1,2,2,3,3,4,4,5,5,6,6,7,7,8,8,9,9,10,10,11,11,12,12,13,13,14,14,15,15,16,16,17,17,18,18,21,21,22,22,23,23,24,24,28,28,31,31,32,32,33,33,34,34,35,35,36,36,37,37,38,38,39,39,40,40,41,41,42,42,43,43,47,47,48,48],"right_children":[2,4,6,8,10,12,14,16,18,20,22,24,26,28,30,32,34,36,38,-1,-1,40,42,44,46,-1,-1,-1,48,-1,-1,50,52,54,56,58,60,62,64,66,68,70,72,74,-1,-1,-1,76,78,-1,-1,-1,-1,-1,-1,-1,-1,-1,-1,-1,-1,-1,-1,-1,-1,-1,-1,-1,-1,-1,-1,-1,-1,-1,-1,-1,-1,-1,-1],"split_conditions":[1.75E1,2E0,5.45E1,5E-1,8.25E1,3.85E1,2.15E1,6.5E0,9.5E0,8.5E0,2.5E0,1.55E1,5E-1,1.5E0,8.65E1,2.226219E-1,1.25E1,2.5E0,4.2900965E-1,3.5762525E-1,3.0604503E-1,1.5E0,1.2637629E-1,9.524673E-3,1.75E1,1.8516669E-1,-3.7329853E-1,-2.7669132E-1,8.5E0,8.7910295E-2,2.9988942E-1,1.1516357E-1,1.5E0,3.85E1,3.5E0,5E-1,1.5E0,4.4173443E-1,1.15E1,2.5E0,7.337489E-1,9.05E1,3.279785E-1,8.209707E-1,3.0068162E-1,-4.4641754E-1,2.860428E-1,1.5E0,5E-1,-5.3153686E-2,1.05180226E-1,-2.6839337E-1,4.3574072E-2,1.2523922E-1,2.1043198E-2,-1.864549E-2,-2.1545795E-1,2.0549515E-1,-1.03013344E-1,7.963243E-2,-2.6068413E-1,3.8930517E-1,-3.4183243E-1,-2.916509E-1,-1.2364469E-1,4.1339695E-2,3.5362995E-1,1.2539376E-1,-2.6203513E-1,-3.850735E-1,2.626414E-1,-1.0768628E-1,2.6734334E-1,1.829944E-1,1.4527055E-2,-1.7019983E-1,1.8197455E-1,2.4556358E-1,-2.43558E-1],"split_indices":[26,26,17,10,25,28,26,28,28,26,29,28,9,5,25,22,28,2,21,0,0,19,23,18,17,0,0,0,28,0,0,22,19,25,30,5,11,22,28,5,18,25,23,21,0,0,0,19,6,0,0,0,0,0,0,0,0,0,0,0,0,0,0,0,0,0,0,0,0,0,0,0,0,0,0,0,0,0,0],"split_type":[0,0,0,0,0,0,0,0,0,0,0,0,0,0,0,0,0,0,0,0,0,0,0,0,0,0,0,0,0,0,0,0,0,0,0,0,0,0,0,0,0,0,0,0,0,0,0,0,0,0,0,0,0,0,0,0,0,0,0,0,0,0,0,0,0,0,0,0,0,0,0,0,0,0,0,0,0,0,0],"sum_hessian":[1.6340891E4,1.5927204E4,4.1368588E2,1.3487715E4,2.4394893E3,3.0462415E2,1.09061745E2,9.978993E3,3.5087214E3,5.0891876E2,1.9305706E3,3.0081552E2,3.8086133E0,7.055052E1,3.8511227E1,5.396853E3,4.5821406E3,2.3051882E3,1.2035332E3,7.3012405E1,4.3590634E2,5.4965375E2,1.3809167E3,2.8230557E2,1.8509968E1,1.4839123E0,2.324701E0,5.6981435E0,6.485238E1,1.5501059E0,3.696112E1,5.126542E3,2.7031143E2,3.6141616E3,9.6797864E2,1.3110946E3,9.940937E2,5.270416E1,1.1508291E3,3.7384055E2,1.7581323E2,1.19348E2,1.2615687E3,2.490469E0,2.798151E2,1.0072949E0,1.7502674E1,2.767642E1,3.7175957E1,4.315716E3,8.108261E2,2.4053745E2,2.9773973E1,2.0120276E3,1.6021342E3,7.772885E2,1.9069014E2,5.7093E1,1.2540016E3,8.79872E2,1.142217E2,4.614796E1,6.5561976E0,3.8211746E2,7.687116E2,1.4997852E2,2.2386203E2,6.495133E1,1.108619E2,7.922349E0,1.1142565E2,1.2021693E3,5.9399456E1,1.4700184E0,1.0204506E0,2.031747E1,7.358949E0,3.4899303E1,2.2766523E0],"tree_param":{"num_deleted":"0","num_feature":"31","num_nodes":"79","size_leaf_vector":"0"}},{"base_weights":[-1.9721611E-4,